{"learner":{"attributes":{"scikit_learn":"{\"_estimator_type\": \"classifier\"}"},"feature_names":[],"feature_types":[],"gradient_booster":{"model":{"gbtree_model_param":{"num_parallel_tree":"1","num_trees":"100"},"iteration_indptr":[0,1,2,3,4,5,6,7,8,9,10,11,12,13,14,15,16,17,18,19,20,21,22,23,24,25,26,27,28,29,30,31,32,33,34,35,36,37,38,39,40,41,42,43,44,45,46,47,48,49,50,51,52,53,54,55,56,57,58,59,60,61,62,63,64,65,66,67,68,69,70,71,72,73,74,75,76,77,78,79,80,81,82,83,84,85,86,87,88,89,90,91,92,93,94,95,96,97,98,99,100],"tree_info":[0,0,0,0,0,0,0,0,0,0,0,0,0,0,0,0,0,0,0,0,0,0,0,0,0,0,0,0,0,0,0,0,0,0,0,0,0,0,0,0,0,0,0,0,0,0,0,0,0,0,0,0,0,0,0,0,0,0,0,0,0,0,0,0,0,0,0,0,0,0,0,0,0,0,0,0,0,0,0,0,0,0,0,0,0,0,0,0,0,0,0,0,0,0,0,0,0,0,0,0],"trees":[{"base_weights":[-1.4781496E-2,-8.237954E-1,1.9819105E0,-1.3675181E0,5.730296E-1,1.6361716E-1,6.088699E-1,-1.4183053E0,-2.8474227E-1,-4.5847717E-1,-1.0732175E0,-2.745807E-1,1.6361716E-1,-3.8014844E-1,-3.2819608E-1,-2.3530755E-2,-1.2459105E-1],"categories":[],"categories_nodes":[],"categories_segments":[],"categories_sizes":[],"default_left":[0,0,0,0,0,0,0,0,0,0,0,0,0,0,0,0,0],"id":0,"left_children":[1,3,5,7,-1,-1,-1,9,11,-1,13,-1,-1,-1,15,-1,-1],"loss_changes":[1.3796474E2,9.2943115E1,5.7920074E-1,2.4155579E0,0E0,0E0,0E0,2.0851898E-1,2.3564153E0,0E0,1.7704792E0,0E0,0E0,0E0,6.478125E-2,0E0,0E0],"parents":[2147483647,0,0,1,1,2,2,3,3,7,7,8,8,10,10,14,14],"right_children":[2,4,6,8,-1,-1,-1,10,12,-1,14,-1,-1,-1,16,-1,-1],"split_conditions":[5.1051766E-1,6.242234E-1,7.015439E-1,4.1500455E-1,5.730296E-1,1.6361716E-1,6.088699E-1,-6.25611E-2,3.6926307E-2,-4.5847717E-1,1.5438573E-1,-2.745807E-1,1.6361716E-1,-3.8014844E-1,3.295203E-2,-2.3530755E-2,-1.2459105E-1],"split_indices":[1,2,1,1,0,0,0,1,2,0,2,0,0,0,1,0,0],"split_type":[0,0,0,0,0,0,0,0,0,0,0,0,0,0,0,0,0],"sum_hessian":[8.3397766E1,5.9768402E1,2.3629368E1,5.027032E1,9.498079E0,1.1583023E0,2.2471066E1,4.7722057E1,2.5482652E0,3.3590767E1,1.4131289E1,1.3899628E0,1.1583023E0,1.0656382E1,3.4749072E0,1.3899628E0,2.0849442E0],"tree_param":{"num_deleted":"0","num_feature":"3","num_nodes":"17","size_leaf_vector":"1"}},{"base_weights":[-3.8238246E-2,-6.8057936E-1,1.2933582E0,-1.1773643E0,1.2108271E0,5.1354104E-1,1.046193E0,-3.9469573E-1,-8.522913E-1,-6.3750143E-3,1.343656E0,4.372538E-1,4.1947258E-1,-3.6801046E-1,-4.0968153E-1,7.870879E-1,4.9566314E-1,-1.1769392E-1,1.0186168E0,-6.580093E-1,-1.7949158E-2,4.453796E-1,-1.03500016E-1,2.799682E-1,-1.7389072E-1,5.7805885E-2,3.8952413E-1,-2.7109978E-1,-8.2333684E-2,-1.0591144E-1,1.327721E-1,-6.1147336E-2,1.9119185E-1],"categories":[],"categories_nodes":[],"categories_segments":[],"categories_sizes":[],"default_left":[0,0,0,0,0,0,0,0,0,0,0,0,0,0,0,0,0,0,0,0,0,0,0,0,0,0,0,0,0,0,0,0,0],"id":1,"left_children":[1,3,5,7,9,-1,11,-1,13,-1,15,17,-1,-1,19,21,-1,23,25,27,29,-1,-1,31,-1,-1,-1,-1,-1,-1,-1,-1,-1],"loss_changes":[6.9460625E1,5.2863525E1,9.43264E-1,8.504677E-1,1.9728642E0,0E0,3.502737E0,0E0,2.1373234E0,0E0,5.439472E-1,2.8575253E0,0E0,0E0,8.44388E-1,5.044974E0,0E0,1.124446E0,7.314248E-1,2.5691867E-1,8.418464E-1,0E0,0E0,7.3307526E-1,0E0,0E0,0E0,0E0,0E0,0E0,0E0,0E0,0E0],"parents":[2147483647,0,0,1,1,2,2,3,3,4,4,6,6,8,8,10,10,11,11,14,14,15,15,17,17,18,18,19,19,20,20,23,23],"right_children":[2,4,6,8,10,-1,12,-1,14,-1,16,18,-1,-1,20,22,-1,24,26,28,30,-1,-1,32,-1,-1,-1,-1,-1,-1,-1,-1,-1],"split_conditions":[5.1051766E-1,5.948586E-1,-9.027491E-1,-6.25611E-2,-9.221793E-1,5.1354104E-1,4.1866943E-1,-3.9469573E-1,-1.0989798E-1,-6.3750143E-3,1.4170746E0,1.2746227E0,4.1947258E-1,-3.6801046E-1,1.0202041E0,1.2408854E0,4.9566314E-1,-5.21006E-1,1.0202041E0,1.2502088E-1,2.2397828E-1,4.453796E-1,-1.03500016E-1,-7.2655994E-1,-1.7389072E-1,5.7805885E-2,3.8952413E-1,-2.7109978E-1,-8.2333684E-2,-1.0591144E-1,1.327721E-1,-6.1147336E-2,1.9119185E-1],"split_indices":[1,2,2,1,1,0,2,0,2,0,2,1,0,0,0,2,0,2,0,2,1,0,0,2,0,0,0,0,0,0,0,0,0],"split_type":[0,0,0,0,0,0,0,0,0,0,0,0,0,0,0,0,0,0,0,0,0,0,0,0,0,0,0,0,0,0,0,0,0],"sum_hessian":[7.917918E1,5.3743202E1,2.5435974E1,4.286268E1,1.0880524E1,7.2448506E0,1.8191124E1,2.7932695E1,1.4929983E1,1.1406099E0,9.739914E0,7.4854903E0,1.0705633E1,7.1284227E0,7.8015604E0,4.740296E0,4.999618E0,4.2377987E0,3.2476916E0,4.358726E0,3.4428344E0,2.7404487E0,1.9998473E0,2.4890416E0,1.7487571E0,1.2491121E0,1.9985795E0,1.8304349E0,2.528291E0,2.1279078E0,1.3149266E0,1.2399293E0,1.2491121E0],"tree_param":{"num_deleted":"0","num_feature":"3","num_nodes":"33","size_leaf_vector":"1"}},{"base_weights":[-2.9493567E-2,-6.34948E-1,9.229433E-1,-1.0775772E0,9.7774595E-1,4.2637494E-1,3.296858E-1,-3.5832137E-1,-7.643764E-1,5.1281345E-1,3.9351714E-1,1.4072847E-1,2.722932E-1,-8.931268E-1,-1.2644699E-1,3.420561E-1,-1.5664795E-1,2.904976E-1,-2.9973078E-1,-3.1828287E-1,-5.190674E-1,4.6204038E-2,-1.0359422E-1,-1.2596884E-1,6.187509E-2,-1.951053E-1,7.5464375E-2,-5.1919227E-3,-2.1803875E-1,1.2248247E-1,-8.671118E-2],"categories":[],"categories_nodes":[],"categories_segments":[],"categories_sizes":[],"default_left":[0,0,0,0,0,0,0,0,0,0,0,0,0,0,0,0,0,0,0,0,0,0,0,0,0,0,0,0,0,0,0],"id":2,"left_children":[1,3,5,7,9,11,-1,-1,13,15,-1,17,-1,19,21,-1,23,-1,25,-1,27,-1,-1,-1,-1,-1,29,-1,-1,-1,-1],"loss_changes":[4.1938553E1,3.2771523E1,2.0028687E0,3.801422E-1,8.9460754E-1,1.1141795E0,0E0,0E0,9.037609E-1,2.640394E0,0E0,2.788164E0,0E0,8.5494995E-2,2.5229192E-1,0E0,4.4148466E-1,0E0,7.378764E-1,0E0,5.1864254E-1,0E0,0E0,0E0,0E0,0E0,5.3353894E-1,0E0,0E0,0E0,0E0],"parents":[2147483647,0,0,1,1,2,2,3,3,4,4,5,5,8,8,9,9,11,11,13,13,14,14,16,16,18,18,20,20,26,26],"right_children":[2,4,6,8,10,12,-1,-1,14,16,-1,18,-1,20,22,-1,24,-1,26,-1,28,-1,-1,-1,-1,-1,30,-1,-1,-1,-1],"split_conditions":[4.1500455E-1,6.242234E-1,8.925702E-1,-6.25611E-2,1.4464394E0,8.004126E-1,3.296858E-1,-3.5832137E-1,2.4248031E-1,1.123426E0,3.9351714E-1,-1.0789382E0,2.722932E-1,-1.0989798E-1,1.2846516E-1,3.420561E-1,-3.491005E-1,2.904976E-1,3.6926307E-2,-3.1828287E-1,6.629116E-2,4.6204038E-2,-1.0359422E-1,-1.2596884E-1,6.187509E-2,-1.951053E-1,5.1051766E-1,-5.1919227E-3,-2.1803875E-1,1.2248247E-1,-8.671118E-2],"split_indices":[1,2,1,1,2,2,0,0,2,2,0,2,0,2,1,0,1,0,2,0,2,0,0,0,0,0,1,0,0,0,0],"split_type":[0,0,0,0,0,0,0,0,0,0,0,0,0,0,0,0,0,0,0,0,0,0,0,0,0,0,0,0,0,0,0],"sum_hessian":[7.071078E1,4.3433735E1,2.727704E1,3.4340313E1,9.093423E0,8.033864E0,1.9243176E1,2.2961779E1,1.1378533E1,4.8613625E0,4.2320604E0,5.852597E0,2.1812665E0,9.134849E0,2.2436848E0,2.1465871E0,2.714775E0,1.61662E0,4.235977E0,5.038229E0,4.09662E0,1.113342E0,1.1303428E0,1.4823837E0,1.2323915E0,1.8106015E0,2.425376E0,1.5166105E0,2.5800097E0,1.2050272E0,1.2203486E0],"tree_param":{"num_deleted":"0","num_feature":"3","num_nodes":"31","size_leaf_vector":"1"}},{"base_weights":[-2.671056E-2,-5.5575097E-1,7.3502535E-1,-9.772113E-1,8.2100904E-1,3.512261E-1,5.1822907E-1,-3.3330965E-1,-6.6099715E-1,4.2634556E-1,3.360179E-1,-4.4128362E-2,9.2267853E-1,-8.3613783E-1,-1.7448257E-1,2.9328755E-1,-1.271122E-1,-4.0578142E-1,5.856537E-1,3.1625807E-1,4.8810744E-1,-7.829737E-2,-2.7171278E-1,-2.2004087E-2,-9.5103055E-2,-1.0466933E-1,5.401208E-2,-5.8653045E-1,-1.4379757E-2,-5.7852548E-3,2.6402834E-1,1.7766501E-3,2.6069334E-1,-5.8483955E-2,4.5719314E-2,-7.0767426E-3,-2.9709417E-1],"categories":[],"categories_nodes":[],"categories_segments":[],"categories_sizes":[],"default_left":[0,0,0,0,0,0,0,0,0,0,0,0,0,0,0,0,0,0,0,0,0,0,0,0,0,0,0,0,0,0,0,0,0,0,0,0,0],"id":3,"left_children":[1,3,5,7,9,-1,11,-1,13,15,-1,17,19,21,23,-1,25,27,29,-1,31,-1,-1,33,-1,-1,-1,35,-1,-1,-1,-1,-1,-1,-1,-1,-1],"loss_changes":[2.5775318E1,2.2687386E1,1.8710794E0,5.068855E-1,6.299281E-1,0E0,4.432566E0,0E0,8.0769587E-1,1.85107E0,0E0,2.2948444E0,1.2996674E-1,8.233547E-2,8.486627E-2,0E0,3.1549117E-1,3.8119733E-1,6.767273E-1,0E0,8.18015E-1,0E0,0E0,1.2370251E-1,0E0,0E0,0E0,9.121171E-1,0E0,0E0,0E0,0E0,0E0,0E0,0E0,0E0,0E0],"parents":[2147483647,0,0,1,1,2,2,3,3,4,4,6,6,8,8,9,9,11,11,12,12,13,13,14,14,16,16,17,17,18,18,20,20,23,23,27,27],"right_children":[2,4,6,8,10,-1,12,-1,14,16,-1,18,20,22,24,-1,26,28,30,-1,32,-1,-1,34,-1,-1,-1,36,-1,-1,-1,-1,-1,-1,-1,-1,-1],"split_conditions":[4.1500455E-1,6.242234E-1,-8.146545E-1,-6.25611E-2,1.4464394E0,3.512261E-1,4.1866943E-1,-3.3330965E-1,1.5438573E-1,1.123426E0,3.360179E-1,1.2746227E0,1.8575474E0,3.295203E-2,3.0121002E-1,2.9328755E-1,1.3877097E0,3.6926307E-2,1.0202041E0,3.1625807E-1,2.1218312E0,-7.829737E-2,-2.7171278E-1,2.4248031E-1,-9.5103055E-2,-1.0466933E-1,5.401208E-2,1.0202041E0,-1.4379757E-2,-5.7852548E-3,2.6402834E-1,1.7766501E-3,2.6069334E-1,-5.8483955E-2,4.5719314E-2,-7.0767426E-3,-2.9709417E-1],"split_indices":[1,2,2,1,2,0,2,0,2,2,0,1,2,1,2,0,2,2,0,0,2,0,0,2,0,0,0,0,0,0,0,0,0,0,0,0,0],"split_type":[0,0,0,0,0,0,0,0,0,0,0,0,0,0,0,0,0,0,0,0,0,0,0,0,0,0,0,0,0,0,0,0,0,0,0,0,0],"sum_hessian":[6.194669E1,3.6716667E1,2.5230022E1,2.833334E1,8.383327E0,6.9205327E0,1.830949E1,1.814211E1,1.0191227E1,4.6596065E0,3.7237203E0,8.032198E0,1.0277293E1,6.965194E0,3.2260332E0,1.9504439E0,2.7091627E0,5.32817E0,2.704028E0,6.7950654E0,3.4822276E0,1.2643367E0,5.7008576E0,2.1163309E0,1.1097025E0,1.4942783E0,1.2148844E0,3.1154933E0,2.2126768E0,1.1911918E0,1.5128361E0,1.9848889E0,1.4973385E0,1.0034633E0,1.1128676E0,1.7433681E0,1.3721251E0],"tree_param":{"num_deleted":"0","num_feature":"3","num_nodes":"37","size_leaf_vector":"1"}},{"base_weights":[-1.6275613E-2,-4.8824525E-1,6.1215025E-1,-8.914496E-1,7.0902103E-1,3.2305002E-1,4.3127942E-1,-3.1480145E-1,-5.68067E-1,3.6215758E-1,2.9691E-1,1.6496142E-2,7.770833E-1,-2.6921204E-1,-2.6208797E-1,2.5801447E-1,-1.0313482E-1,-2.730329E-1,5.475302E-1,2.66047E-1,4.1989383E-1,-4.707297E-1,1.118345E-2,-1.0403996E-1,6.429734E-2,3.0394211E-2,-4.3741384E-1,2.5604057E-1,-4.674823E-3,1.4229143E-3,2.3106827E-1,-2.6712237E-2,-2.2479297E-1,-4.8676275E-2,7.4228E-2,-1.14591606E-1,1.2932868E-1,-2.399661E-1,-1.14193E-2],"categories":[],"categories_nodes":[],"categories_segments":[],"categories_sizes":[],"default_left":[0,0,0,0,0,0,0,0,0,0,0,0,0,0,0,0,0,0,0,0,0,0,0,0,0,0,0,0,0,0,0,0,0,0,0,0,0,0,0],"id":4,"left_children":[1,3,5,7,9,-1,11,-1,13,15,-1,17,19,-1,21,-1,23,25,27,-1,29,31,33,-1,-1,35,37,-1,-1,-1,-1,-1,-1,-1,-1,-1,-1,-1,-1],"loss_changes":[1.6579367E1,1.6033447E1,1.5516214E0,6.4510536E-1,4.783101E-1,0E0,2.702998E0,0E0,7.8807974E-1,1.3445877E0,0E0,1.6301416E0,3.1527042E-2,0E0,3.8594303E-1,0E0,3.601675E-1,3.574282E-1,6.560149E-1,0E0,6.247955E-1,3.3832496E-1,1.9860865E-1,0E0,0E0,7.1976423E-1,6.2675107E-1,0E0,0E0,0E0,0E0,0E0,0E0,0E0,0E0,0E0,0E0,0E0,0E0],"parents":[2147483647,0,0,1,1,2,2,3,3,4,4,6,6,8,8,9,9,11,11,12,12,14,14,16,16,17,17,18,18,20,20,21,21,22,22,25,25,26,26],"right_children":[2,4,6,8,10,-1,12,-1,14,16,-1,18,20,-1,22,-1,24,26,28,-1,30,32,34,-1,-1,36,38,-1,-1,-1,-1,-1,-1,-1,-1,-1,-1,-1,-1],"split_conditions":[4.1500455E-1,6.242234E-1,-9.027491E-1,-6.25611E-2,1.4464394E0,3.2305002E-1,4.1866943E-1,-3.1480145E-1,-1.0989798E-1,1.123426E0,2.9691E-1,1.2746227E0,1.8575474E0,-2.6921204E-1,1.0202041E0,2.5801447E-1,-3.491005E-1,-5.21006E-1,2.0387278E0,2.66047E-1,2.1218312E0,2.7184516E-1,2.2397828E-1,-1.0403996E-1,6.429734E-2,-7.2655994E-1,3.6926307E-2,2.5604057E-1,-4.674823E-3,1.4229143E-3,2.3106827E-1,-2.6712237E-2,-2.2479297E-1,-4.8676275E-2,7.4228E-2,-1.14591606E-1,1.2932868E-1,-2.399661E-1,-1.14193E-2],"split_indices":[1,2,2,1,2,0,2,0,2,2,0,1,2,0,0,0,1,2,1,0,2,2,1,0,0,2,2,0,0,0,0,0,0,0,0,0,0,0,0],"split_type":[0,0,0,0,0,0,0,0,0,0,0,0,0,0,0,0,0,0,0,0,0,0,0,0,0,0,0,0,0,0,0,0,0,0,0,0,0,0,0],"sum_hessian":[5.3890762E1,3.0903915E1,2.2986845E1,2.3309414E1,7.5945005E0,5.052541E0,1.7934305E1,1.415398E1,9.155435E0,4.42114E0,3.1733606E0,8.630243E0,9.304062E0,3.4787147E0,5.67672E0,1.7259101E0,2.69523E0,5.8995514E0,2.730692E0,5.9830847E0,3.3209767E0,2.809276E0,2.8674438E0,1.4725528E0,1.2226772E0,2.35943E0,3.540121E0,1.4352804E0,1.2954115E0,1.9837462E0,1.3372306E0,1.742062E0,1.0672141E0,1.8341179E0,1.0333258E0,1.1858253E0,1.1736046E0,1.3299791E0,2.2101421E0],"tree_param":{"num_deleted":"0","num_feature":"3","num_nodes":"39","size_leaf_vector":"1"}},{"base_weights":[-6.8912418E-3,-4.306372E-1,5.21152E-1,-8.157993E-1,6.2166476E-1,2.9260042E-1,3.5921243E-1,-2.9972932E-1,-4.9458447E-1,3.1209037E-1,2.671455E-1,1.3990923E-2,6.630206E-1,-2.4809153E-1,-2.2396117E-1,2.304793E-1,-8.336628E-2,-2.3368886E-1,4.7517827E-1,4.4404823E-1,2.720204E-1,3.6484547E-2,-3.937936E-1,-8.817811E-2,5.7304125E-2,2.6805386E-2,-3.785702E-1,-2.0861149E-2,2.2965774E-1,6.2166303E-1,-7.937294E-2,-1.4427575E-1,-4.7350254E-2,-9.5220886E-2,1.10613436E-1,-2.1541117E-1,-9.06796E-3,2.247576E-1,5.7951603E-2],"categories":[],"categories_nodes":[],"categories_segments":[],"categories_sizes":[],"default_left":[0,0,0,0,0,0,0,0,0,0,0,0,0,0,0,0,0,0,0,0,0,0,0,0,0,0,0,0,0,0,0,0,0,0,0,0,0,0,0],"id":5,"left_children":[1,3,5,7,9,-1,11,-1,13,15,-1,17,19,-1,21,-1,23,25,27,29,-1,-1,31,-1,-1,33,35,-1,-1,37,-1,-1,-1,-1,-1,-1,-1,-1,-1],"loss_changes":[1.0974215E1,1.1531906E1,1.2560868E0,7.0374393E-1,3.758564E-1,0E0,1.8454099E0,0E0,6.5782213E-1,1.0004468E0,0E0,1.1732645E0,9.818411E-2,0E0,4.3157154E-1,0E0,2.6889756E-1,2.6378027E-1,6.192497E-1,1.0332875E0,0E0,0E0,1.9056857E-2,0E0,0E0,5.096035E-1,4.9678576E-1,0E0,0E0,1.7319989E-1,0E0,0E0,0E0,0E0,0E0,0E0,0E0,0E0,0E0],"parents":[2147483647,0,0,1,1,2,2,3,3,4,4,6,6,8,8,9,9,11,11,12,12,14,14,16,16,17,17,18,18,19,19,22,22,25,25,26,26,29,29],"right_children":[2,4,6,8,10,-1,12,-1,14,16,-1,18,20,-1,22,-1,24,26,28,30,-1,-1,32,-1,-1,34,36,-1,-1,38,-1,-1,-1,-1,-1,-1,-1,-1,-1],"split_conditions":[4.1500455E-1,6.242234E-1,-9.027491E-1,-6.25611E-2,1.4464394E0,2.9260042E-1,4.1866943E-1,-2.9972932E-1,-1.0989798E-1,1.123426E0,2.671455E-1,1.2746227E0,1.465649E0,-2.4809153E-1,3.295203E-2,2.304793E-1,1.3877097E0,-5.21006E-1,1.0202041E0,1.2746227E0,2.720204E-1,3.6484547E-2,1.0202041E0,-8.817811E-2,5.7304125E-2,-7.2655994E-1,3.6926307E-2,-2.0861149E-2,2.2965774E-1,1.8575474E0,-7.937294E-2,-1.4427575E-1,-4.7350254E-2,-9.5220886E-2,1.10613436E-1,-2.1541117E-1,-9.06796E-3,2.247576E-1,5.7951603E-2],"split_indices":[1,2,2,1,2,0,2,0,2,2,0,1,1,0,1,0,2,2,0,1,0,0,0,0,0,2,2,0,0,2,0,0,0,0,0,0,0,0,0],"split_type":[0,0,0,0,0,0,0,0,0,0,0,0,0,0,0,0,0,0,0,0,0,0,0,0,0,0,0,0,0,0,0,0,0,0,0,0,0,0,0],"sum_hessian":[4.7042408E1,2.6201002E1,2.0841404E1,1.9345089E1,6.8559146E0,4.1577034E0,1.66837E1,1.0973045E1,8.372043E0,4.19077E0,2.6651442E0,8.299226E0,8.384474E0,2.8346457E0,5.5373974E0,1.5082365E0,2.6825337E0,5.72039E0,2.578836E0,5.9028654E0,2.4816084E0,1.9181803E0,3.6192167E0,1.4774725E0,1.2050613E0,2.3357441E0,3.3846457E0,1.161073E0,1.417763E0,4.8179727E0,1.0848927E0,1.8850415E0,1.7341752E0,1.1996663E0,1.136078E0,1.1766704E0,2.2079754E0,3.1361415E0,1.6818312E0],"tree_param":{"num_deleted":"0","num_feature":"3","num_nodes":"39","size_leaf_vector":"1"}},{"base_weights":[3.2178662E-3,-3.770066E-1,4.4802284E-1,-7.4397075E-1,5.505504E-1,2.5694E-1,2.8354454E-1,-2.8632268E-1,-4.2864653E-1,2.723653E-1,2.427076E-1,-5.7269223E-2,5.7109094E-1,-2.2902142E-1,-1.8713059E-1,2.0787072E-1,-6.719138E-2,-2.9396483E-1,3.8291463E-1,3.6653924E-1,2.454128E-1,4.900001E-2,-3.0789763E-1,-8.795993E-2,6.416116E-2,-4.5117828E-1,-7.2004325E-3,2.0532058E-1,-1.889107E-2,5.288644E-1,-6.538496E-2,-1.8778543E-1,-1.987748E-2,-1.672496E-2,-2.1938184E-1,1.9453269E-1,4.778705E-2],"categories":[],"categories_nodes":[],"categories_segments":[],"categories_sizes":[],"default_left":[0,0,0,0,0,0,0,0,0,0,0,0,0,0,0,0,0,0,0,0,0,0,0,0,0,0,0,0,0,0,0,0,0,0,0,0,0],"id":6,"left_children":[1,3,5,7,9,-1,11,-1,13,15,-1,17,19,-1,21,-1,23,25,27,29,-1,-1,31,-1,-1,33,-1,-1,-1,35,-1,-1,-1,-1,-1,-1,-1],"loss_changes":[7.335701E0,8.370852E0,1.0998306E0,7.311821E-1,2.9771614E-1,0E0,1.575551E0,0E0,5.5999756E-1,7.5735414E-1,0E0,9.578785E-1,1.3610005E-1,0E0,3.2009643E-1,0E0,2.9555523E-1,2.3711026E-1,4.8286462E-1,7.3501366E-1,0E0,0E0,3.4953037E-1,0E0,0E0,3.6191165E-1,0E0,0E0,0E0,1.3553417E-1,0E0,0E0,0E0,0E0,0E0,0E0,0E0],"parents":[2147483647,0,0,1,1,2,2,3,3,4,4,6,6,8,8,9,9,11,11,12,12,14,14,16,16,17,17,18,18,19,19,22,22,25,25,29,29],"right_children":[2,4,6,8,10,-1,12,-1,14,16,-1,18,20,-1,22,-1,24,26,28,30,-1,-1,32,-1,-1,34,-1,-1,-1,36,-1,-1,-1,-1,-1,-1,-1],"split_conditions":[4.1500455E-1,6.242234E-1,-8.146545E-1,-6.25611E-2,1.4464394E0,2.5694E-1,4.1866943E-1,-2.8632268E-1,-1.0989798E-1,1.123426E0,2.427076E-1,1.2746227E0,1.465649E0,-2.2902142E-1,6.629116E-2,2.0787072E-1,-3.491005E-1,3.6926307E-2,2.0387278E0,1.2746227E0,2.454128E-1,4.900001E-2,1.5438573E-1,-8.795993E-2,6.416116E-2,1.0202041E0,-7.2004325E-3,2.0532058E-1,-1.889107E-2,1.8575474E0,-6.538496E-2,-1.8778543E-1,-1.987748E-2,-1.672496E-2,-2.1938184E-1,1.9453269E-1,4.778705E-2],"split_indices":[1,2,2,1,2,0,2,0,2,2,0,1,1,0,2,0,1,2,1,1,0,0,2,0,0,0,0,0,0,2,0,0,0,0,0,0,0],"split_type":[0,0,0,0,0,0,0,0,0,0,0,0,0,0,0,0,0,0,0,0,0,0,0,0,0,0,0,0,0,0,0,0,0,0,0,0,0],"sum_hessian":[4.1375538E1,2.2389313E1,1.8986223E1,1.6184324E1,6.2049885E0,4.242869E0,1.4743354E1,8.490955E0,7.6933694E0,3.9777026E0,2.2272859E0,7.1132383E0,7.630116E0,2.3186584E0,5.374711E0,1.3120879E0,2.6656148E0,4.841854E0,2.2713842E0,5.532098E0,2.0980177E0,1.2871006E0,4.0876102E0,1.4535755E0,1.2120394E0,2.6356966E0,2.2061577E0,1.035975E0,1.2354093E0,4.4041414E0,1.1279564E0,1.0781184E0,3.009492E0,1.5900104E0,1.0456861E0,2.7574024E0,1.6467392E0],"tree_param":{"num_deleted":"0","num_feature":"3","num_nodes":"37","size_leaf_vector":"1"}},{"base_weights":[9.116837E-3,-2.7633467E-1,4.984897E-1,-6.844351E-1,4.0231213E-1,-5.0522298E-2,1.8049356E-1,-2.8413373E-1,-3.7908238E-1,2.7041695E-1,6.809843E-3,-4.5633903E-1,2.74193E-2,-1.5459447E-1,2.0535195E-1,2.6696516E-2,-1.7704877E-1,1.6218817E-1,-6.834182E-2,-8.643556E-2,7.3818445E-2],"categories":[],"categories_nodes":[],"categories_segments":[],"categories_sizes":[],"default_left":[0,0,0,0,0,0,0,0,0,0,0,0,0,0,0,0,0,0,0,0,0],"id":7,"left_children":[1,3,5,7,9,-1,-1,-1,11,-1,13,15,-1,-1,17,-1,-1,-1,19,-1,-1],"loss_changes":[5.431381E0,7.082247E0,1.0862777E0,9.017148E-1,1.9399459E0,0E0,0E0,0E0,3.665129E-1,0E0,7.804647E-1,6.248449E-1,0E0,0E0,5.3522974E-1,0E0,0E0,0E0,3.3881676E-1,0E0,0E0],"parents":[2147483647,0,0,1,1,2,2,3,3,4,4,8,8,10,10,11,11,14,14,18,18],"right_children":[2,4,6,8,10,-1,-1,-1,12,-1,14,16,-1,-1,18,-1,-1,-1,20,-1,-1],"split_conditions":[5.06764E-1,7.015439E-1,-6.3563985E-1,7.5614504E-3,-8.146545E-1,-5.0522298E-2,1.8049356E-1,-2.8413373E-1,4.1500455E-1,2.7041695E-1,-7.2655994E-1,6.629116E-2,2.74193E-2,-1.5459447E-1,-5.21006E-1,2.6696516E-2,-1.7704877E-1,1.6218817E-1,1.1791096E0,-8.643556E-2,7.3818445E-2],"split_indices":[2,1,1,2,2,0,0,0,1,0,2,2,0,0,2,0,0,0,1,0,0],"split_type":[0,0,0,0,0,0,0,0,0,0,0,0,0,0,0,0,0,0,0,0,0],"sum_hessian":[3.6894955E1,2.3577509E1,1.3317448E1,1.47182455E1,8.859263E0,1.6992536E0,1.1618194E1,6.782207E0,7.936038E0,3.3512619E0,5.5080013E0,6.8425007E0,1.0935373E0,1.077887E0,4.4301147E0,1.4142996E0,5.428201E0,1.5527247E0,2.87739E0,1.7427565E0,1.1346333E0],"tree_param":{"num_deleted":"0","num_feature":"3","num_nodes":"21","size_leaf_vector":"1"}},{"base_weights":[4.148904E-3,-2.3273692E-1,3.9097404E-1,-6.006115E-1,3.4368882E-1,1.6782306E-2,5.3194106E-1,-2.6989496E-1,-3.0415335E-1,2.4904333E-1,5.6248615E-3,-8.818944E-2,9.947904E-2,2.3382474E-1,3.0121672E-1,-1.9011806E-1,-1.363511E-1,-2.3028535E-1,3.2331306E-1,4.6358697E-2,2.0719005E-1,6.4807415E-2,-3.0508935E-1,-1.2664916E-1,-7.995837E-3,-3.7961543E-2,1.894622E-1,-2.1261503E-1,1.2123148E-1,-1.294766E-1,2.303553E-2,6.048264E-2,-1.5382048E-1],"categories":[],"categories_nodes":[],"categories_segments":[],"categories_sizes":[],"default_left":[0,0,0,0,0,0,0,0,0,0,0,0,0,0,0,0,0,0,0,0,0,0,0,0,0,0,0,0,0,0,0,0,0],"id":8,"left_children":[1,3,5,7,9,11,13,-1,15,-1,17,-1,-1,-1,19,-1,21,23,25,27,-1,-1,29,-1,-1,-1,-1,31,-1,-1,-1,-1,-1],"loss_changes":[3.2188132E0,4.8284802E0,6.94597E-1,9.3818235E-1,1.4963741E0,5.5552316E-1,3.1651926E-1,0E0,3.7675518E-1,0E0,5.5350226E-1,0E0,0E0,0E0,6.2564224E-1,0E0,4.7163492E-1,1.5488882E-1,5.152724E-1,5.563075E-1,0E0,0E0,2.7605847E-1,0E0,0E0,0E0,0E0,5.5096686E-1,0E0,0E0,0E0,0E0,0E0],"parents":[2147483647,0,0,1,1,2,2,3,3,4,4,5,5,6,6,8,8,10,10,14,14,16,16,17,17,18,18,19,19,22,22,27,27],"right_children":[2,4,6,8,10,12,14,-1,16,-1,18,-1,-1,-1,20,-1,22,24,26,28,-1,-1,30,-1,-1,-1,-1,32,-1,-1,-1,-1,-1],"split_conditions":[5.06764E-1,7.015439E-1,-2.5358737E-1,7.5614504E-3,-8.146545E-1,1.3877097E0,5.1051766E-1,-2.6989496E-1,-6.25611E-2,2.4904333E-1,1.2746227E0,-8.818944E-2,9.947904E-2,2.3382474E-1,1.465649E0,-1.9011806E-1,3.295203E-2,-5.797357E-1,1.0202041E0,1.9162772E0,2.0719005E-1,6.4807415E-2,4.1500455E-1,-1.2664916E-1,-7.995837E-3,-3.7961543E-2,1.894622E-1,1.2996151E0,1.2123148E-1,-1.294766E-1,2.303553E-2,6.048264E-2,-1.5382048E-1],"split_indices":[2,1,1,2,2,2,1,0,1,0,1,0,0,0,1,0,1,2,0,2,0,0,1,0,0,0,0,2,0,0,0,0,0],"split_type":[0,0,0,0,0,0,0,0,0,0,0,0,0,0,0,0,0,0,0,0,0,0,0,0,0,0,0,0,0,0,0,0,0],"sum_hessian":[3.3134052E1,2.0796768E1,1.2337283E1,1.2669281E1,8.127487E0,3.6821651E0,8.655118E0,5.294272E0,7.3750095E0,2.735569E0,5.391918E0,1.8863829E0,1.7957823E0,3.0285614E0,5.626557E0,1.55138E0,5.82363E0,3.2520895E0,2.1398287E0,4.0772214E0,1.5493352E0,1.7949673E0,4.028662E0,1.1218398E0,2.1302497E0,1.109704E0,1.0301247E0,2.6004376E0,1.4767839E0,2.9284143E0,1.1002481E0,1.230436E0,1.3700017E0],"tree_param":{"num_deleted":"0","num_feature":"3","num_nodes":"33","size_leaf_vector":"1"}},{"base_weights":[9.67255E-3,-2.0252469E-1,3.281653E-1,-5.2651083E-1,2.8324085E-1,-4.948776E-2,4.1977915E-1,-2.554421E-1,-2.4536769E-1,2.2961119E-1,-1.5974663E-2,2.29685E-1,6.231833E-1,-1.6755125E-1,-1.0646475E-1,-1.3117775E-1,1.5675817E-1,-7.028709E-2,2.3372515E-1,2.614053E-1,4.999279E-2,5.105411E-2,-2.4842773E-1,1.4836714E-1,-1.2061457E-1,6.0042467E-2,-2.122072E-1,-7.4256086E-3,-1.3473782E-1,-9.004904E-2,5.12021E-2,-1.4403889E-1,1.31784985E-2],"categories":[],"categories_nodes":[],"categories_segments":[],"categories_sizes":[],"default_left":[0,0,0,0,0,0,0,0,0,0,0,0,0,0,0,0,0,0,0,0,0,0,0,0,0,0,0,0,0,0,0,0,0],"id":9,"left_children":[1,3,5,7,9,-1,11,-1,13,-1,15,17,19,-1,21,-1,23,25,-1,-1,-1,-1,27,-1,29,-1,31,-1,-1,-1,-1,-1,-1],"loss_changes":[2.1827202E0,3.2040627E0,6.52135E-1,8.868933E-1,1.2264218E0,0E0,2.884904E-1,0E0,2.8135225E-1,0E0,5.177562E-1,1.2667253E0,3.99647E-1,0E0,3.0397087E-1,0E0,5.3882474E-1,2.602361E-1,0E0,0E0,0E0,0E0,2.048178E-1,0E0,2.4014807E-1,0E0,3.097623E-1,0E0,0E0,0E0,0E0,0E0,0E0],"parents":[2147483647,0,0,1,1,2,2,3,3,4,4,6,6,8,8,10,10,11,11,12,12,14,14,16,16,17,17,22,22,24,24,26,26],"right_children":[2,4,6,8,10,-1,12,-1,14,-1,16,18,20,-1,22,-1,24,26,-1,-1,-1,-1,28,-1,30,-1,32,-1,-1,-1,-1,-1,-1],"split_conditions":[4.7739917E-1,7.015439E-1,-6.3563985E-1,7.5614504E-3,-8.146545E-1,-4.948776E-2,1.0202041E0,-2.554421E-1,-6.25611E-2,2.2961119E-1,-7.2655994E-1,1.9162772E0,1.2702503E0,-1.6755125E-1,3.295203E-2,-1.3117775E-1,-5.21006E-1,1.2408854E0,2.3372515E-1,2.614053E-1,4.999279E-2,5.105411E-2,1.8375058E-1,1.4836714E-1,1.1791096E0,6.0042467E-2,1.32898E0,-7.4256086E-3,-1.3473782E-1,-9.004904E-2,5.12021E-2,-1.4403889E-1,1.31784985E-2],"split_indices":[2,1,1,2,2,0,0,0,1,0,2,2,2,0,1,0,2,2,0,0,0,0,2,0,1,0,2,0,0,0,0,0,0],"split_type":[0,0,0,0,0,0,0,0,0,0,0,0,0,0,0,0,0,0,0,0,0,0,0,0,0,0,0,0,0,0,0,0,0],"sum_hessian":[3.0313347E1,1.841103E1,1.1902317E1,1.0994356E1,7.416673E0,1.739363E0,1.0162954E1,4.1587734E0,6.8355827E0,2.243603E0,5.17307E0,6.3539696E0,3.8089848E0,1.1722014E0,5.663381E0,1.058947E0,4.1141233E0,4.6740184E0,1.6799514E0,1.8789994E0,1.9299854E0,1.8532207E0,3.8101606E0,1.5019568E0,2.6121664E0,1.4674853E0,3.206533E0,2.3331852E0,1.4769754E0,1.5971936E0,1.0149727E0,1.1397841E0,2.0667489E0],"tree_param":{"num_deleted":"0","num_feature":"3","num_nodes":"33","size_leaf_vector":"1"}},{"base_weights":[1.0689347E-2,-9.187153E-2,5.680767E-1,-2.1976513E-1,3.4158877E-1,2.3133038E-1,3.5588026E-2,-5.986935E-1,-4.8626486E-2,4.4817206E-1,6.428418E-3,-2.4233328E-1,2.908873E-3,1.3868001E-1,-1.4781533E-1,3.9711498E-2,2.031901E-1,-3.9206368E-1,3.8819194E-2,-4.0540155E-2,-1.4748842E-1,-6.569445E-2,9.425749E-2],"categories":[],"categories_nodes":[],"categories_segments":[],"categories_sizes":[],"default_left":[0,0,0,0,0,0,0,0,0,0,0,0,0,0,0,0,0,0,0,0,0,0,0],"id":10,"left_children":[1,3,5,7,9,-1,-1,11,13,15,-1,-1,-1,-1,17,-1,-1,19,21,-1,-1,-1,-1],"loss_changes":[1.7186922E0,1.4877248E0,3.3462775E-1,1.2863643E0,2.0186627E-1,0E0,0E0,7.9939866E-1,8.316138E-1,2.43132E-1,0E0,0E0,0E0,0E0,6.2474775E-1,0E0,0E0,8.40258E-2,6.7147785E-1,0E0,0E0,0E0,0E0],"parents":[2147483647,0,0,1,1,2,2,3,3,4,4,7,7,8,8,9,9,14,14,17,17,18,18],"right_children":[2,4,6,8,10,-1,-1,12,14,16,-1,-1,-1,-1,18,-1,-1,20,22,-1,-1,-1,-1],"split_conditions":[1.465649E0,1.3877097E0,2.0387278E0,-6.25611E-2,9.880833E-1,2.3133038E-1,3.5588026E-2,6.242234E-1,-8.146545E-1,1.8869122E0,6.428418E-3,-2.4233328E-1,2.908873E-3,1.3868001E-1,9.565602E-2,3.9711498E-2,2.031901E-1,3.1949142E-1,1.0202041E0,-4.0540155E-2,-1.4748842E-1,-6.569445E-2,9.425749E-2],"split_indices":[1,2,1,1,1,0,0,2,2,2,0,0,0,0,2,0,0,1,0,0,0,0,0],"split_type":[0,0,0,0,0,0,0,0,0,0,0,0,0,0,0,0,0,0,0,0,0,0,0],"sum_hessian":[2.8151907E1,2.4482273E1,3.6696336E0,1.9285141E1,5.197133E0,2.034816E0,1.6348175E0,5.2227783E0,1.4062362E1,3.5991282E0,1.5980047E0,3.6430485E0,1.5797298E0,1.6911687E0,1.2371193E1,2.176729E0,1.4223994E0,4.8817506E0,7.489443E0,2.0217626E0,2.8599877E0,3.9739006E0,3.5155425E0],"tree_param":{"num_deleted":"0","num_feature":"3","num_nodes":"23","size_leaf_vector":"1"}},{"base_weights":[1.6053267E-2,-2.0323355E-1,7.819361E-2,-1.0587234E-1,3.2772425E-1,-3.602099E-1,2.1818729E-1,1.5990052E-1,5.137871E-1,-2.2110058E-1,-1.2948957E-1,2.000847E-1,-1.757562E-2,-8.809311E-2,2.0994796E-1,2.0456387E-1,5.5791397E-2,-2.572172E-1,4.1733403E-2,-1.0509587E-1,1.2514403E-1,6.780513E-2,-2.4953297E-1,-5.782929E-3,-1.22088954E-1,1.4253703E-1,-1.1757914E-1,1.3775833E-1,-4.489684E-2,-1.3810952E-1,9.3131856E-4],"categories":[],"categories_nodes":[],"categories_segments":[],"categories_sizes":[],"default_left":[0,0,0,0,0,0,0,0,0,0,0,0,0,0,0,0,0,0,0,0,0,0,0,0,0,0,0,0,0,0,0],"id":11,"left_children":[1,-1,3,5,7,9,11,13,15,-1,17,-1,19,21,-1,-1,-1,23,25,-1,27,-1,29,-1,-1,-1,-1,-1,-1,-1,-1],"loss_changes":[1.2379696E0,0E0,1.2349905E0,1.3804376E0,2.7188003E-1,7.066848E-1,8.1246305E-1,1.0542328E0,1.4457047E-1,0E0,1.6241995E-1,0E0,3.2573524E-1,3.5903388E-1,0E0,0E0,0E0,1.386706E-1,9.0487146E-1,0E0,5.176993E-1,0E0,2.3670912E-1,0E0,0E0,0E0,0E0,0E0,0E0,0E0,0E0],"parents":[2147483647,0,0,2,2,3,3,4,4,5,5,6,6,7,7,8,8,10,10,12,12,13,13,17,17,18,18,20,20,22,22],"right_children":[2,-1,4,6,8,10,12,14,16,-1,18,-1,20,22,-1,-1,-1,24,26,-1,28,-1,30,-1,-1,-1,-1,-1,-1,-1,-1],"split_conditions":[-1.0176924E0,-2.0323355E-1,4.7739917E-1,7.015439E-1,1.0202041E0,7.5614504E-3,-8.146545E-1,1.9162772E0,1.2702503E0,-2.2110058E-1,1.0202041E0,2.000847E-1,-7.2655994E-1,1.2408854E0,2.0994796E-1,2.0456387E-1,5.5791397E-2,2.2397828E-1,1.2502088E-1,-1.0509587E-1,-5.21006E-1,6.780513E-2,1.3877097E0,-5.782929E-3,-1.22088954E-1,1.4253703E-1,-1.1757914E-1,1.3775833E-1,-4.489684E-2,-1.3810952E-1,9.3131856E-4],"split_indices":[1,0,2,1,0,2,2,2,2,0,0,0,2,2,0,0,0,1,2,0,2,0,2,0,0,0,0,0,0,0,0],"split_type":[0,0,0,0,0,0,0,0,0,0,0,0,0,0,0,0,0,0,0,0,0,0,0,0,0,0,0,0,0,0,0],"sum_hessian":[2.649783E1,1.3647783E0,2.513305E1,1.4795145E1,1.0337905E1,8.226802E0,6.5683436E0,6.4129677E0,3.9249372E0,2.290997E0,5.935805E0,1.6323531E0,4.9359903E0,4.96797E0,1.444998E0,1.8805753E0,2.044362E0,3.1120589E0,2.823746E0,1.0450073E0,3.890983E0,1.550733E0,3.4172368E0,1.638025E0,1.4740337E0,1.3645024E0,1.4592437E0,1.4533101E0,2.437673E0,1.4145356E0,2.0027013E0],"tree_param":{"num_deleted":"0","num_feature":"3","num_nodes":"31","size_leaf_vector":"1"}},{"base_weights":[1.3808888E-2,-7.5520076E-2,4.942954E-1,-1.7538598E-1,2.5476593E-1,2.078586E-1,3.0513903E-2,-5.417799E-1,-3.788651E-2,4.2615306E-1,9.2152525E-3,-2.1772458E-1,-1.6924186E-2,-1.9477102E-1,1.4309531E-1,1.6268164E-2,1.7761481E-1,-3.8036637E-2,4.5844786E-2,2.2943133E-2,-3.014744E-1,-1.3591631E-1,1.8835677E-1,1.3221204E-2,-1.5186682E-1,2.7940396E-2,-1.4178824E-1],"categories":[],"categories_nodes":[],"categories_segments":[],"categories_sizes":[],"default_left":[0,0,0,0,0,0,0,0,0,0,0,0,0,0,0,0,0,0,0,0,0,0,0,0,0,0,0],"id":12,"left_children":[1,3,5,7,9,-1,-1,11,13,15,17,-1,-1,19,21,-1,-1,-1,-1,-1,23,25,-1,-1,-1,-1,-1],"loss_changes":[1.1529268E0,7.962121E-1,2.5749397E-1,8.9067787E-1,2.3584643E-1,0E0,0E0,3.930428E-1,4.3181324E-1,1.7356664E-1,8.507738E-2,0E0,0E0,2.5588042E-1,1.056795E0,0E0,0E0,0E0,0E0,0E0,4.4507623E-1,4.590006E-1,0E0,0E0,0E0,0E0,0E0],"parents":[2147483647,0,0,1,1,2,2,3,3,4,4,7,7,8,8,9,9,10,10,13,13,14,14,20,20,21,21],"right_children":[2,4,6,8,10,-1,-1,12,14,16,18,-1,-1,20,22,-1,-1,-1,-1,-1,24,26,-1,-1,-1,-1,-1],"split_conditions":[1.465649E0,1.3877097E0,2.0387278E0,-1.5807423E-1,5.1051766E-1,2.078586E-1,3.0513903E-2,6.242234E-1,1.0202041E0,1.4464394E0,1.9162772E0,-2.1772458E-1,-1.6924186E-2,-5.21006E-1,2.7184516E-1,1.6268164E-2,1.7761481E-1,-3.8036637E-2,4.5844786E-2,2.2943133E-2,2.2397828E-1,1.2502088E-1,1.8835677E-1,1.3221204E-2,-1.5186682E-1,2.7940396E-2,-1.4178824E-1],"split_indices":[1,2,1,1,1,0,0,2,0,2,2,0,0,2,2,0,0,0,0,0,1,2,0,0,0,0,0],"split_type":[0,0,0,0,0,0,0,0,0,0,0,0,0,0,0,0,0,0,0,0,0,0,0,0,0,0,0],"sum_hessian":[2.4991663E1,2.1784462E1,3.2072015E0,1.7086994E1,4.6974683E0,1.6219451E0,1.5852563E0,3.8602853E0,1.3226708E1,2.3333557E0,2.3641129E0,2.4401374E0,1.4201479E0,7.0442195E0,6.182489E0,1.1290324E0,1.2043233E0,1.2742995E0,1.0898134E0,2.0686998E0,4.975519E0,4.3807187E0,1.8017702E0,2.1432328E0,2.8322866E0,3.037696E0,1.3430226E0],"tree_param":{"num_deleted":"0","num_feature":"3","num_nodes":"27","size_leaf_vector":"1"}},{"base_weights":[1.6276753E-2,-5.975013E-2,4.3758616E-1,-2.0032768E-1,1.2920779E-1,1.9063261E-1,2.5157558E-2,-3.850696E-1,5.462254E-2,2.1750207E-1,-9.967982E-2,-1.9458447E-1,-1.9686814E-1,1.99657E-1,-1.0760175E-1,-5.609697E-2,3.7339923E-1,3.297879E-2,-3.1190002E-1,3.1384456E-1,-2.2999974E-2,6.705992E-2,-6.519717E-2,5.3116786E-1,-1.7779054E-2,-1.54134445E-2,-1.3745743E-1,-1.1321092E-2,1.6444373E-1,5.2327003E-2,2.2971989E-1],"categories":[],"categories_nodes":[],"categories_segments":[],"categories_sizes":[],"default_left":[0,0,0,0,0,0,0,0,0,0,0,0,0,0,0,0,0,0,0,0,0,0,0,0,0,0,0,0,0,0,0],"id":13,"left_children":[1,3,5,7,9,-1,-1,11,13,15,-1,-1,17,19,-1,21,23,-1,25,27,-1,-1,-1,29,-1,-1,-1,-1,-1,-1,-1],"loss_changes":[8.2512087E-1,6.105583E-1,2.2199106E-1,6.339529E-1,4.7962195E-1,0E0,0E0,2.5272512E-1,4.518479E-1,4.0466657E-1,0E0,0E0,2.4286889E-1,1.9249015E-1,0E0,2.3499285E-1,4.3158376E-1,0E0,1.5021765E-1,3.4800413E-1,0E0,0E0,0E0,2.3425937E-1,0E0,0E0,0E0,0E0,0E0,0E0,0E0],"parents":[2147483647,0,0,1,1,2,2,3,3,4,4,7,7,8,8,9,9,12,12,13,13,15,15,16,16,18,18,19,19,23,23],"right_children":[2,4,6,8,10,-1,-1,12,14,16,-1,-1,18,20,-1,22,24,-1,26,28,-1,-1,-1,30,-1,-1,-1,-1,-1,-1,-1],"split_conditions":[1.465649E0,4.7739917E-1,2.0387278E0,4.1500455E-1,1.2746227E0,1.9063261E-1,2.5157558E-2,7.5614504E-3,1.0835965E0,-2.5358737E-1,-9.967982E-2,-1.9458447E-1,6.629116E-2,1.5438573E-1,-1.0760175E-1,1.2702503E0,1.8575474E0,3.297879E-2,1.0202041E0,-6.091005E-1,-2.2999974E-2,6.705992E-2,-6.519717E-2,1.2702503E0,-1.7779054E-2,-1.54134445E-2,-1.3745743E-1,-1.1321092E-2,1.6444373E-1,5.2327003E-2,2.2971989E-1],"split_indices":[1,2,1,1,1,0,0,2,1,1,0,0,2,2,0,2,2,0,0,2,0,0,0,2,0,0,0,0,0,0,0],"split_type":[0,0,0,0,0,0,0,0,0,0,0,0,0,0,0,0,0,0,0,0,0,0,0,0,0,0,0,0,0,0,0],"sum_hessian":[2.3943932E1,2.1010658E1,2.9332733E0,1.2013155E1,8.997504E0,1.3703555E0,1.5629178E0,6.6697507E0,5.343404E0,7.996252E0,1.0012519E0,1.7594892E0,4.9102616E0,4.338012E0,1.0053914E0,3.1348197E0,4.861432E0,1.3511131E0,3.5591483E0,2.9734726E0,1.36454E0,1.0051135E0,2.1297064E0,3.3955774E0,1.4658548E0,1.765779E0,1.7933693E0,1.5246269E0,1.4488457E0,2.0386484E0,1.3569292E0],"tree_param":{"num_deleted":"0","num_feature":"3","num_nodes":"31","size_leaf_vector":"1"}},{"base_weights":[1.5679667E-2,-4.9520265E-2,3.880592E-1,-1.0566717E-1,1.1164496E-1,1.1608275E-2,1.8725677E-1,-2.530185E-1,8.602094E-2,-1.6502056E-1,-1.7065187E-1,-1.8115018E-1,4.0421164E-1,-3.047216E-1,1.12224415E-1,-1.4354928E-1,1.19871944E-1,-2.3950538E-2,1.9089115E-1,-1.492403E-1,-5.012641E-2,-5.06571E-2,1.1474746E-1],"categories":[],"categories_nodes":[],"categories_segments":[],"categories_sizes":[],"default_left":[0,0,0,0,0,0,0,0,0,0,0,0,0,0,0,0,0,0,0,0,0,0,0],"id":14,"left_children":[1,3,5,7,-1,-1,-1,9,11,13,-1,15,17,19,-1,-1,21,-1,-1,-1,-1,-1,-1],"loss_changes":[6.056633E-1,5.4697716E-1,2.820874E-1,5.7824075E-1,0E0,0E0,0E0,2.2274882E-1,8.645759E-1,8.911203E-1,0E0,5.720839E-1,5.6288195E-1,1.4889872E-1,0E0,0E0,3.4190512E-1,0E0,0E0,0E0,0E0,0E0,0E0],"parents":[2147483647,0,0,1,1,2,2,3,3,7,7,8,8,9,9,11,11,12,12,13,13,16,16],"right_children":[2,4,6,8,-1,-1,-1,10,12,14,-1,16,18,20,-1,-1,22,-1,-1,-1,-1,-1,-1],"split_conditions":[1.465649E0,1.9162772E0,1.0202041E0,1.0202041E0,1.1164496E-1,1.1608275E-2,1.8725677E-1,1.1791096E0,2.7184516E-1,8.925702E-1,-1.7065187E-1,2.2397828E-1,-1.5807423E-1,1.2502088E-1,1.12224415E-1,-1.4354928E-1,-1.0989798E-1,-2.3950538E-2,1.9089115E-1,-1.492403E-1,-5.012641E-2,-5.06571E-2,1.1474746E-1],"split_indices":[1,2,0,0,0,0,0,1,2,1,0,1,1,2,0,0,2,0,0,0,0,0,0],"split_type":[0,0,0,0,0,0,0,0,0,0,0,0,0,0,0,0,0,0,0,0,0,0,0],"sum_hessian":[2.3154356E1,2.0442156E1,2.7122E0,1.8701405E1,1.7407519E0,1.5632175E0,1.1489825E0,1.0392615E1,8.308788E0,9.318651E0,1.073964E0,4.7506E0,3.5581887E0,7.746111E0,1.5725402E0,2.093289E0,2.657311E0,1.3657749E0,2.1924138E0,2.1378162E0,5.608295E0,1.4357967E0,1.2215142E0],"tree_param":{"num_deleted":"0","num_feature":"3","num_nodes":"23","size_leaf_vector":"1"}},{"base_weights":[1.8005187E-2,-3.8760375E-2,3.439192E-1,-8.5627064E-2,9.608582E-2,1.6955186E-1,4.3091876E-3,-1.3243268E-1,-2.1248408E-2,5.89171E-2,-1.2938036E-1,-2.7508527E-2,1.2028191E-1,-4.9021807E-2,3.8773395E-2],"categories":[],"categories_nodes":[],"categories_segments":[],"categories_sizes":[],"default_left":[0,0,0,0,0,0,0,0,0,0,0,0,0,0,0],"id":15,"left_children":[1,3,5,7,-1,-1,-1,-1,9,11,-1,13,-1,-1,-1],"loss_changes":[4.436943E-1,3.759211E-1,2.5087047E-1,4.2832506E-1,0E0,0E0,0E0,0E0,5.917816E-1,4.6307763E-1,0E0,3.011129E-1,0E0,0E0,0E0],"parents":[2147483647,0,0,1,1,2,2,3,3,8,8,9,9,11,11],"right_children":[2,4,6,8,-1,-1,-1,-1,10,12,-1,14,-1,-1,-1],"split_conditions":[1.465649E0,1.9162772E0,2.0387278E0,-6.3563985E-1,9.608582E-2,1.6955186E-1,4.3091876E-3,-1.3243268E-1,1.0835965E0,8.925702E-1,-1.2938036E-1,1.0202041E0,1.2028191E-1,-4.9021807E-2,3.8773395E-2],"split_indices":[1,2,1,1,0,0,0,0,1,1,0,0,0,0,0],"split_type":[0,0,0,0,0,0,0,0,0,0,0,0,0,0,0],"sum_hessian":[2.2262043E1,1.9710133E1,2.55191E0,1.8107992E1,1.6021395E0,1.0990702E0,1.4528397E0,1.8770021E0,1.6230991E1,1.4292817E1,1.9381733E0,1.2143779E1,2.1490383E0,6.4818683E0,5.661911E0],"tree_param":{"num_deleted":"0","num_feature":"3","num_nodes":"15","size_leaf_vector":"1"}},{"base_weights":[1.896118E-2,-9.673887E-2,1.7699277E-1,-1.6727409E-1,-7.2719883E-3,3.7363547E-1,-9.868181E-3,1.3575287E-1,-1.1114686E-1,4.8749503E-2,1.376145E-1,-1.5935397E-1,2.3424448E-1,6.454701E-2,-1.9750528E-1,1.3681646E-1,-2.279922E-3,-2.5713724E-1,1.8106932E-2,-4.623002E-2,5.0236583E-2,-1.2572348E-1,-7.8071174E-3],"categories":[],"categories_nodes":[],"categories_segments":[],"categories_sizes":[],"default_left":[0,0,0,0,0,0,0,0,0,0,0,0,0,0,0,0,0,0,0,0,0,0,0],"id":16,"left_children":[1,3,5,-1,7,9,11,-1,13,-1,-1,-1,15,-1,17,-1,19,21,-1,-1,-1,-1,-1],"loss_changes":[4.3378693E-1,5.6503236E-1,3.7060055E-1,0E0,6.507282E-1,1.3320684E-2,8.999835E-1,0E0,3.5409603E-1,0E0,0E0,0E0,2.5520837E-1,0E0,1.5798885E-1,0E0,1.1186364E-1,2.7784497E-1,0E0,0E0,0E0,0E0,0E0],"parents":[2147483647,0,0,1,1,2,2,4,4,5,5,6,6,8,8,12,12,14,14,16,16,17,17],"right_children":[2,4,6,-1,8,10,12,-1,14,-1,-1,-1,16,-1,18,-1,20,22,-1,-1,-1,-1,-1],"split_conditions":[5.06764E-1,-6.25611E-2,1.2996151E0,-1.6727409E-1,-8.146545E-1,1.2846516E-1,1.4170746E0,1.3575287E-1,3.295203E-2,4.8749503E-2,1.376145E-1,-1.5935397E-1,5.1051766E-1,6.454701E-2,1.2746227E0,1.3681646E-1,1.0835965E0,9.565602E-2,1.8106932E-2,-4.623002E-2,5.0236583E-2,-1.2572348E-1,-7.8071174E-3],"split_indices":[2,1,2,0,2,1,2,0,1,0,0,0,1,0,1,0,1,2,0,0,0,0,0],"split_type":[0,0,0,0,0,0,0,0,0,0,0,0,0,0,0,0,0,0,0,0,0,0,0],"sum_hessian":[2.178817E1,1.2802728E1,8.985441E0,1.2307769E0,1.1571951E1,3.8911066E0,5.0943346E0,1.5140433E0,1.0057908E1,1.953406E0,1.9377005E0,1.2496653E0,3.844669E0,1.7927186E0,8.265189E0,1.5050738E0,2.3395953E0,6.7150955E0,1.5500938E0,1.2835948E0,1.0560005E0,3.4702175E0,3.2448778E0],"tree_param":{"num_deleted":"0","num_feature":"3","num_nodes":"23","size_leaf_vector":"1"}},{"base_weights":[1.7700132E-2,-4.4493526E-2,2.2190776E-1,-3.6585817E-1,4.0940706E-2,1.21140696E-1,-3.7838977E-3,-1.7921826E-1,5.9633437E-3,1.1838884E-1,-2.447738E-2,4.0078036E-2,-3.6227297E-2,-1.4921966E-1,1.278898E-1,1.5533975E-1,-4.8061383E-1,-6.1511684E-2,1.2779447E-1,-6.850981E-2,9.846274E-2,-1.6571522E-1,-4.893757E-2,4.317893E-2,-1.1126571E-1],"categories":[],"categories_nodes":[],"categories_segments":[],"categories_sizes":[],"default_left":[0,0,0,0,0,0,0,0,0,0,0,0,0,0,0,0,0,0,0,0,0,0,0,0,0],"id":17,"left_children":[1,3,5,7,9,-1,11,-1,-1,-1,13,-1,-1,15,17,19,21,23,-1,-1,-1,-1,-1,-1,-1],"loss_changes":[2.897813E-1,5.016825E-1,2.1960771E-1,3.533665E-1,3.5448897E-1,0E0,7.014918E-2,0E0,0E0,0E0,2.7602926E-1,0E0,0E0,8.7146604E-1,4.0018836E-1,3.97961E-1,1.6080737E-3,3.663591E-1,0E0,0E0,0E0,0E0,0E0,0E0,0E0],"parents":[2147483647,0,0,1,1,2,2,3,3,4,4,6,6,10,10,13,13,14,14,15,15,16,16,17,17],"right_children":[2,4,6,8,10,-1,12,-1,-1,-1,14,-1,-1,16,18,20,22,24,-1,-1,-1,-1,-1,-1,-1],"split_conditions":[1.3877097E0,-6.25611E-2,1.8575474E0,6.242234E-1,-8.146545E-1,1.21140696E-1,9.880833E-1,-1.7921826E-1,5.9633437E-3,1.1838884E-1,1.0202041E0,4.0078036E-2,-3.6227297E-2,7.970571E-1,2.7184516E-1,1.2502088E-1,1.465649E0,1.2502088E-1,1.2779447E-1,-6.850981E-2,9.846274E-2,-1.6571522E-1,-4.893757E-2,4.317893E-2,-1.1126571E-1],"split_indices":[2,1,2,2,2,0,1,0,0,0,0,0,0,1,2,2,1,2,0,0,0,0,0,0,0],"split_type":[0,0,0,0,0,0,0,0,0,0,0,0,0,0,0,0,0,0,0,0,0,0,0,0,0],"sum_hessian":[2.1039259E1,1.6726988E1,4.31227E0,2.8235905E0,1.3903398E1,1.9508333E0,2.3614368E0,1.4215813E0,1.4020094E0,1.3846644E0,1.2518733E1,1.0206616E0,1.3407753E0,6.8947177E0,5.624016E0,3.8696592E0,3.0250587E0,3.9242654E0,1.6997502E0,1.102185E0,2.7674742E0,1.8638659E0,1.1611928E0,2.6796203E0,1.2446451E0],"tree_param":{"num_deleted":"0","num_feature":"3","num_nodes":"25","size_leaf_vector":"1"}},{"base_weights":[9.874232E-3,-4.5214392E-2,2.6129577E-1,-1.2176875E-1,6.4724214E-2,-1.0125403E-2,1.7240933E-1,-2.50235E-1,3.5235815E-2,1.8990132E-1,-7.1809016E-2,-3.380321E-1,-8.056348E-2,9.445467E-2,-8.7194175E-2,-1.537523E-2,1.0834317E-1,-1.6509646E-1,-1.9606052E-2,8.974063E-2,-1.1367422E-1,6.0440358E-2,-6.80351E-2,-5.4416306E-2,5.0875485E-2,3.0809386E-2,-3.3233594E-3],"categories":[],"categories_nodes":[],"categories_segments":[],"categories_sizes":[],"default_left":[0,0,0,0,0,0,0,0,0,0,0,0,0,0,0,0,0,0,0,0,0,0,0,0,0,0,0],"id":18,"left_children":[1,3,5,7,9,-1,-1,11,13,15,-1,17,19,-1,21,23,-1,-1,-1,-1,-1,25,-1,-1,-1,-1,-1],"loss_changes":[3.1227383E-1,1.6481736E-1,3.9355907E-1,2.3753044E-1,3.6167178E-1,0E0,0E0,6.750867E-2,2.321484E-1,2.320181E-1,0E0,1.8853554E-1,5.077595E-1,0E0,1.15547165E-1,1.5018174E-1,0E0,0E0,0E0,0E0,0E0,1.0782159E-2,0E0,0E0,0E0,0E0,0E0],"parents":[2147483647,0,0,1,1,2,2,3,3,4,4,7,7,8,8,9,9,11,11,12,12,14,14,15,15,21,21],"right_children":[2,4,6,8,10,-1,-1,12,14,16,-1,18,20,-1,22,24,-1,-1,-1,-1,-1,26,-1,-1,-1,-1,-1],"split_conditions":[1.3701358E0,4.7739917E-1,1.0202041E0,4.1500455E-1,7.970571E-1,-1.0125403E-2,1.7240933E-1,1.5438573E-1,-8.146545E-1,-2.5358737E-1,-7.1809016E-2,1.0202041E0,2.7184516E-1,9.445467E-2,8.925702E-1,1.3877097E0,1.0834317E-1,-1.6509646E-1,-1.9606052E-2,8.974063E-2,-1.1367422E-1,5.1051766E-1,-6.80351E-2,-5.4416306E-2,5.0875485E-2,3.0809386E-2,-3.3233594E-3],"split_indices":[1,2,0,1,1,0,0,2,2,1,0,0,2,0,1,2,0,0,0,0,0,1,0,0,0,0,0],"split_type":[0,0,0,0,0,0,0,0,0,0,0,0,0,0,0,0,0,0,0,0,0,0,0,0,0,0,0],"sum_hessian":[2.0693096E1,1.7646715E1,3.046382E0,1.0339398E1,7.3073163E0,2.0287526E0,1.0176294E0,5.3599257E0,4.979472E0,5.442447E0,1.8648694E0,2.8782775E0,2.4816482E0,1.0377443E0,3.941728E0,2.889218E0,2.553229E0,1.0458457E0,1.8324318E0,1.0908E0,1.3908483E0,2.1912267E0,1.7505013E0,1.5327772E0,1.356441E0,1.1033357E0,1.0878911E0],"tree_param":{"num_deleted":"0","num_feature":"3","num_nodes":"27","size_leaf_vector":"1"}},{"base_weights":[9.237552E-3,-3.9127506E-2,2.3259369E-1,-8.3366856E-2,-7.020974E-3,1.1894835E-1,-1.5448192E-2,3.1335007E-2,-6.384212E-2,-4.4436056E-2,1.3821591E-1,-1.1103171E-1,1.6365945E-1,-6.786454E-2,6.4293635E-3,-7.7008426E-2,1.3187744E-1],"categories":[],"categories_nodes":[],"categories_segments":[],"categories_sizes":[],"default_left":[0,0,0,0,0,0,0,0,0,0,0,0,0,0,0,0,0],"id":19,"left_children":[1,3,5,-1,7,-1,-1,9,-1,11,-1,13,15,-1,-1,-1,-1],"loss_changes":[2.3876533E-1,1.3857774E-1,2.0332201E-1,0E0,1.4231072E-1,0E0,0E0,5.2010167E-1,0E0,2.1170607E-1,0E0,1.753566E-1,5.524316E-1,0E0,0E0,0E0,0E0],"parents":[2147483647,0,0,1,1,2,2,4,4,7,7,9,9,11,11,12,12],"right_children":[2,4,6,-1,8,-1,-1,10,-1,12,-1,14,16,-1,-1,-1,-1],"split_conditions":[1.3701358E0,-8.266661E-1,2.0387278E0,-8.3366856E-2,1.8575474E0,1.1894835E-1,-1.5448192E-2,1.3877097E0,-6.384212E-2,8.925702E-1,1.3821591E-1,1.0202041E0,-6.091005E-1,-6.786454E-2,6.4293635E-3,-7.7008426E-2,1.3187744E-1],"split_indices":[1,1,1,0,2,0,0,2,0,1,0,0,2,0,0,0,0],"split_type":[0,0,0,0,0,0,0,0,0,0,0,0,0,0,0,0,0],"sum_hessian":[2.0260052E1,1.7331867E1,2.9281852E0,1.1469885E0,1.6184877E1,1.6059666E0,1.3222187E0,1.4356697E1,1.828181E0,1.2965298E1,1.3913999E0,1.0175369E1,2.7899287E0,5.0641046E0,5.111264E0,1.1332521E0,1.6566764E0],"tree_param":{"num_deleted":"0","num_feature":"3","num_nodes":"17","size_leaf_vector":"1"}},{"base_weights":[1.1532684E-2,-2.5966147E-2,8.806376E-2,4.282661E-2,-2.855157E-1,-6.0911346E-2,3.147753E-1,-1.5126932E-1,-7.6623987E-3,1.8160649E-1,-1.50106E-1,1.2762076E-1,1.3460393E-1,2.927367E-3,7.807539E-2,-1.0201859E-1,-6.086107E-2,-3.3931765E-3,6.0872253E-2,2.9628057E-2,-7.630311E-2],"categories":[],"categories_nodes":[],"categories_segments":[],"categories_sizes":[],"default_left":[0,0,0,0,0,0,0,0,0,0,0,0,0,0,0,0,0,0,0,0,0],"id":20,"left_children":[1,3,-1,5,7,9,11,-1,-1,13,15,17,-1,-1,-1,-1,19,-1,-1,-1,-1],"loss_changes":[2.2937346E-1,3.5909563E-1,0E0,4.7693583E-1,2.2597164E-1,2.9945773E-1,5.9087604E-2,0E0,0E0,4.9305603E-2,1.445471E-1,3.716565E-2,0E0,0E0,0E0,0E0,2.6754802E-1,0E0,0E0,0E0,0E0],"parents":[2147483647,0,0,1,1,3,3,4,4,5,5,6,6,9,9,10,10,11,11,16,16],"right_children":[2,4,-1,6,8,10,12,-1,-1,14,16,18,-1,-1,-1,-1,20,-1,-1,-1,-1],"split_conditions":[1.9162772E0,1.2996151E0,8.806376E-2,4.7739917E-1,1.4170746E0,-6.678302E-1,1.0202041E0,-1.5126932E-1,-7.6623987E-3,9.880833E-1,7.5614504E-3,1.2846516E-1,1.3460393E-1,2.927367E-3,7.807539E-2,-1.0201859E-1,2.7184516E-1,-3.3931765E-3,6.0872253E-2,2.9628057E-2,-7.630311E-2],"split_indices":[2,2,0,2,2,2,0,0,0,1,2,1,0,0,0,0,2,0,0,0,0],"split_type":[0,0,0,0,0,0,0,0,0,0,0,0,0,0,0,0,0,0,0,0,0],"sum_hessian":[1.9969051E1,1.8426796E1,1.542255E0,1.5226151E1,3.2006452E0,1.1583508E1,3.6426437E0,1.227996E0,1.9726492E0,2.8361158E0,8.747392E0,2.3338125E0,1.3088312E0,1.2433399E0,1.5927761E0,1.8977138E0,6.8496785E0,1.118866E0,1.2149465E0,4.0215254E0,2.8281531E0],"tree_param":{"num_deleted":"0","num_feature":"3","num_nodes":"21","size_leaf_vector":"1"}},{"base_weights":[1.1126994E-2,-2.0042421E-2,7.5626105E-2,-1.2455375E-1,1.19091295E-1,9.1607295E-2,-2.5789964E-1,-4.614464E-2,3.8020012E-1,-8.200705E-2,2.7891332E-1,-7.40382E-2,-4.1369292E-1,-1.8794839E-1,9.25645E-2,2.6547907E-2,1.452143E-1,1.3421055E-2,1.2449937E-1,-6.024717E-2,3.6407445E-2,-1.5790643E-1,-5.29286E-2,1.00289725E-1,-1.2746052E-1,-3.0908674E-2,7.4023455E-2],"categories":[],"categories_nodes":[],"categories_segments":[],"categories_sizes":[],"default_left":[0,0,0,0,0,0,0,0,0,0,0,0,0,0,0,0,0,0,0,0,0,0,0,0,0,0,0],"id":21,"left_children":[1,3,-1,5,7,9,11,13,15,-1,17,19,21,23,-1,-1,-1,-1,-1,-1,-1,-1,-1,25,-1,-1,-1],"loss_changes":[1.6019708E-1,2.9427075E-1,0E0,3.5403013E-1,3.952484E-1,4.2564666E-1,1.7995083E-1,3.725105E-1,6.322485E-2,0E0,1.0484862E-1,1.3808152E-1,7.6841116E-3,3.9011616E-1,0E0,0E0,0E0,0E0,0E0,0E0,0E0,0E0,0E0,1.178725E-1,0E0,0E0,0E0],"parents":[2147483647,0,0,1,1,3,3,4,4,5,5,6,6,7,7,8,8,10,10,11,11,12,12,13,13,23,23],"right_children":[2,4,-1,6,8,10,12,14,16,-1,18,20,22,24,-1,-1,-1,-1,-1,-1,-1,-1,-1,26,-1,-1,-1],"split_conditions":[1.9162772E0,1.0202041E0,7.5626105E-2,2.7184516E-1,7.970571E-1,-7.2655994E-1,5.1051766E-1,6.242234E-1,-1.0989798E-1,-8.200705E-2,5.1051766E-1,3.295203E-2,8.004126E-1,1.2502088E-1,9.25645E-2,2.6547907E-2,1.452143E-1,1.3421055E-2,1.2449937E-1,-6.024717E-2,3.6407445E-2,-1.5790643E-1,-5.29286E-2,1.2846516E-1,-1.2746052E-1,-3.0908674E-2,7.4023455E-2],"split_indices":[2,0,0,2,1,2,1,2,2,0,1,1,2,2,0,0,0,0,0,0,0,0,0,1,0,0,0],"split_type":[0,0,0,0,0,0,0,0,0,0,0,0,0,0,0,0,0,0,0,0,0,0,0,0,0,0,0],"sum_hessian":[1.9656805E1,1.8217146E1,1.4396588E0,1.0462758E1,7.7543874E0,4.111233E0,6.3515253E0,5.253268E0,2.5011196E0,1.2385386E0,2.8726945E0,3.589988E0,2.761537E0,4.0887313E0,1.1645365E0,1.1428906E0,1.358229E0,1.5441833E0,1.3285112E0,2.1604028E0,1.4295852E0,1.0462884E0,1.7152487E0,2.1047614E0,1.9839702E0,1.005448E0,1.0993134E0],"tree_param":{"num_deleted":"0","num_feature":"3","num_nodes":"27","size_leaf_vector":"1"}},{"base_weights":[1.2288353E-2,-2.3645874E-2,6.730549E-2,-4.955862E-2,5.4683216E-2,8.175251E-3,-1.0326034E-1,-7.273962E-2,1.10176355E-1,-1.6217029E-1,4.063985E-2,2.5590813E-2,-8.33715E-2,-5.064148E-2,7.762791E-2],"categories":[],"categories_nodes":[],"categories_segments":[],"categories_sizes":[],"default_left":[0,0,0,0,0,0,0,0,0,0,0,0,0,0,0],"id":22,"left_children":[1,3,-1,5,-1,7,-1,9,-1,11,13,-1,-1,-1,-1],"loss_changes":[1.6057044E-1,1.0682967E-1,0E0,2.931082E-1,0E0,4.6968552E-1,0E0,1.4121386E-1,0E0,2.4203168E-1,3.4767085E-1,0E0,0E0,0E0,0E0],"parents":[2147483647,0,0,1,1,3,3,5,5,7,7,9,9,10,10],"right_children":[2,4,-1,6,-1,8,-1,10,-1,12,14,-1,-1,-1,-1],"split_conditions":[1.465649E0,1.9162772E0,6.730549E-2,1.0835965E0,5.4683216E-2,8.925702E-1,-1.0326034E-1,1.0202041E0,1.10176355E-1,2.7184516E-1,2.7184516E-1,2.5590813E-2,-8.33715E-2,-5.064148E-2,7.762791E-2],"split_indices":[1,2,0,1,0,1,0,0,0,2,2,0,0,0,0],"split_type":[0,0,0,0,0,0,0,0,0,0,0,0,0,0,0],"sum_hessian":[1.9375164E1,1.7327505E1,2.0476587E0,1.6065239E1,1.2622656E0,1.4246045E1,1.8191947E0,1.2276979E1,1.9690657E0,6.622779E0,5.6542006E0,2.194109E0,4.4286695E0,2.9998E0,2.6544006E0],"tree_param":{"num_deleted":"0","num_feature":"3","num_nodes":"15","size_leaf_vector":"1"}},{"base_weights":[1.4102074E-2,-5.5769473E-2,1.07170805E-1,6.826786E-2,-1.1348803E-1,3.0710208E-1,-8.017943E-2,-3.954681E-2,-8.99433E-2,3.6941405E-2,1.160435E-1,-1.19107835E-1,1.0298316E-1,-7.9545334E-2,6.493221E-2,9.452599E-2,-2.3822792E-2,1.63524E-1,-9.772216E-2,-8.476665E-3,8.499437E-2,-7.037077E-2,2.8360462E-2],"categories":[],"categories_nodes":[],"categories_segments":[],"categories_sizes":[],"default_left":[0,0,0,0,0,0,0,0,0,0,0,0,0,0,0,0,0,0,0,0,0,0,0],"id":23,"left_children":[1,3,5,-1,7,9,11,13,-1,-1,-1,-1,15,-1,17,-1,-1,19,21,-1,-1,-1,-1],"loss_changes":[1.365046E-1,2.2407246E-1,3.5985163E-1,0E0,1.3608481E-1,1.889041E-2,3.5503665E-1,2.2557223E-1,0E0,0E0,0E0,0E0,1.8844065E-1,0E0,1.2574717E-1,0E0,0E0,1.1450415E-1,1.0660666E-1,0E0,0E0,0E0,0E0],"parents":[2147483647,0,0,1,1,2,2,4,4,5,5,6,6,7,7,12,12,14,14,17,17,18,18],"right_children":[2,4,6,-1,8,10,12,14,-1,-1,-1,-1,16,-1,18,-1,-1,20,22,-1,-1,-1,-1],"split_conditions":[4.7739917E-1,-8.146545E-1,1.2996151E0,6.826786E-2,1.0835965E0,1.2846516E-1,1.4170746E0,7.5614504E-3,-8.99433E-2,3.6941405E-2,1.160435E-1,-1.19107835E-1,5.1051766E-1,-7.9545334E-2,2.7184516E-1,9.452599E-2,-2.3822792E-2,9.565602E-2,4.1500455E-1,-8.476665E-3,8.499437E-2,-7.037077E-2,2.8360462E-2],"split_indices":[2,2,2,0,1,1,2,2,0,0,0,0,1,0,2,0,0,2,1,0,0,0,0],"split_type":[0,0,0,0,0,0,0,0,0,0,0,0,0,0,0,0,0,0,0,0,0,0,0],"sum_hessian":[1.9072374E1,1.1122731E1,7.949643E0,1.3844025E0,9.738329E0,3.5364857E0,4.413157E0,7.8395114E0,1.8988177E0,1.8384061E0,1.6980796E0,1.1889015E0,3.2242556E0,1.9946246E0,5.844887E0,1.1543485E0,2.0699072E0,3.6357539E0,2.209133E0,1.6916386E0,1.9441153E0,1.1619699E0,1.0471629E0],"tree_param":{"num_deleted":"0","num_feature":"3","num_nodes":"23","size_leaf_vector":"1"}},{"base_weights":[1.2236097E-2,-2.9736198E-2,2.0490688E-1,4.9520223E-3,-6.39E-2,1.1140003E-1,-1.9011471E-2,-5.0311293E-2,9.031098E-2,-2.8550574E-1,2.0590106E-2,-1.5390779E-1,1.3228021E-2,8.181871E-2,-5.431714E-2,-4.3865617E-2,5.518371E-2],"categories":[],"categories_nodes":[],"categories_segments":[],"categories_sizes":[],"default_left":[0,0,0,0,0,0,0,0,0,0,0,0,0,0,0,0,0],"id":24,"left_children":[1,3,5,7,-1,-1,-1,9,-1,11,13,-1,-1,-1,15,-1,-1],"loss_changes":[1.6674161E-1,1.1030291E-1,1.8784803E-1,2.6757798E-1,0E0,0E0,0E0,2.3696305E-1,0E0,2.6837438E-1,2.3353514E-1,0E0,0E0,0E0,2.4065211E-1,0E0,0E0],"parents":[2147483647,0,0,1,1,2,2,3,3,7,7,9,9,10,10,14,14],"right_children":[2,4,6,8,-1,-1,-1,10,-1,12,14,-1,-1,-1,16,-1,-1],"split_conditions":[1.3701358E0,1.8575474E0,2.0387278E0,1.3877097E0,-6.39E-2,1.1140003E-1,-1.9011471E-2,-6.25611E-2,9.031098E-2,6.242234E-1,3.295203E-2,-1.5390779E-1,1.3228021E-2,8.181871E-2,3.0121002E-1,-4.3865617E-2,5.518371E-2],"split_indices":[1,2,1,2,0,0,0,1,0,2,1,0,0,0,2,0,0],"split_type":[0,0,0,0,0,0,0,0,0,0,0,0,0,0,0,0,0],"sum_hessian":[1.8865429E1,1.6185228E1,2.6802018E0,1.4427387E1,1.757841E0,1.4170194E0,1.2631823E0,1.2857627E1,1.5697602E0,2.2771277E0,1.0580499E1,1.0179374E0,1.2591902E0,1.8185025E0,8.761996E0,6.601869E0,2.1601274E0],"tree_param":{"num_deleted":"0","num_feature":"3","num_nodes":"17","size_leaf_vector":"1"}},{"base_weights":[1.2047065E-2,1.7915453E-1,-2.495374E-2,5.5928268E-3,7.444319E-2,-8.5908554E-2,2.2556337E-2,1.12020515E-1,-1.2632589E-1,-3.692539E-2,1.578297E-1,-1.0850614E-1,3.7439127E-2,6.775032E-2,1.2302934E-1,6.431496E-2,-4.552394E-2,4.7625963E-2,-7.401937E-2],"categories":[],"categories_nodes":[],"categories_segments":[],"categories_sizes":[],"default_left":[0,0,0,0,0,0,0,0,0,0,0,0,0,0,0,0,0,0,0],"id":25,"left_children":[1,3,5,-1,-1,-1,7,9,11,-1,13,-1,15,17,-1,-1,-1,-1,-1],"loss_changes":[1.2592143E-1,3.615836E-2,2.1708596E-1,0E0,0E0,0E0,2.17649E-1,1.2791654E-1,2.526933E-1,0E0,1.7375308E-1,0E0,1.8534754E-1,2.6048264E-1,0E0,0E0,0E0,0E0,0E0],"parents":[2147483647,0,0,1,1,2,2,6,6,7,7,8,8,10,10,12,12,13,13],"right_children":[2,4,6,-1,-1,-1,8,10,12,-1,14,-1,16,18,-1,-1,-1,-1,-1],"split_conditions":[-6.678302E-1,9.880833E-1,7.5614504E-3,5.5928268E-3,7.444319E-2,-8.5908554E-2,5.1051766E-1,-6.3563985E-1,8.925702E-1,-3.692539E-2,1.3583449E0,-1.0850614E-1,1.2996151E0,1.2408854E0,1.2302934E-1,6.431496E-2,-4.552394E-2,4.7625963E-2,-7.401937E-2],"split_indices":[2,1,2,0,0,0,1,1,1,0,2,0,2,2,0,0,0,0,0],"split_type":[0,0,0,0,0,0,0,0,0,0,0,0,0,0,0,0,0,0,0],"sum_hessian":[1.8642353E1,2.6830287E0,1.5959325E1,1.188372E0,1.4946566E0,1.6812768E0,1.42780485E1,9.073388E0,5.2046604E0,1.2045274E0,7.8688602E0,1.6396296E0,3.565031E0,6.7331614E0,1.135699E0,1.7732923E0,1.7917386E0,5.6060925E0,1.1270686E0],"tree_param":{"num_deleted":"0","num_feature":"3","num_nodes":"19","size_leaf_vector":"1"}},{"base_weights":[6.9762464E-3,-1.958771E-2,6.3777134E-2,3.4446914E-2,-2.1872143E-1,-4.591531E-2,2.5971484E-1,-1.0493353E-1,6.022858E-3,1.3599841E-1,-1.3758777E-1,2.4863733E-2,9.784464E-2,-5.9029393E-2,1.01656266E-1,9.175294E-3,-2.6327068E-1,-3.863973E-2,1.1806065E-2,-3.2810576E-2,5.7820063E-2,-1.0777512E-1,-3.0549252E-2],"categories":[],"categories_nodes":[],"categories_segments":[],"categories_sizes":[],"default_left":[0,0,0,0,0,0,0,0,0,0,0,0,0,0,0,0,0,0,0,0,0,0,0],"id":26,"left_children":[1,3,-1,5,7,9,11,-1,-1,13,15,-1,-1,17,-1,19,21,-1,-1,-1,-1,-1,-1],"loss_changes":[1.11487985E-1,2.0462674E-1,0E0,2.8838414E-1,1.3363102E-1,2.2059283E-1,2.190718E-2,0E0,0E0,2.0037818E-1,1.6006058E-1,0E0,0E0,2.6870072E-2,0E0,1.2789574E-1,3.5275877E-2,0E0,0E0,0E0,0E0,0E0,0E0],"parents":[2147483647,0,0,1,1,3,3,4,4,5,5,6,6,9,9,10,10,13,13,15,15,16,16],"right_children":[2,4,-1,6,8,10,12,-1,-1,14,16,-1,-1,18,-1,20,22,-1,-1,-1,-1,-1,-1],"split_conditions":[1.9162772E0,1.2996151E0,6.3777134E-2,5.06764E-1,1.4464394E0,-5.21006E-1,8.004126E-1,-1.0493353E-1,6.022858E-3,-7.2655994E-1,3.1949142E-1,2.4863733E-2,9.784464E-2,1.0835965E0,1.01656266E-1,1.2846516E-1,1.0202041E0,-3.863973E-2,1.1806065E-2,-3.2810576E-2,5.7820063E-2,-1.0777512E-1,-3.0549252E-2],"split_indices":[2,2,0,2,2,2,2,0,0,2,1,0,0,1,0,1,0,0,0,0,0,0,0],"split_type":[0,0,0,0,0,0,0,0,0,0,0,0,0,0,0,0,0,0,0,0,0,0,0],"sum_hessian":[1.8649443E1,1.7316946E1,1.3324964E0,1.4271432E1,3.0455146E0,1.1105739E1,3.1656933E0,1.6662787E0,1.3792359E0,3.5592604E0,7.5464783E0,1.4782873E0,1.6874061E0,2.1761215E0,1.3831391E0,3.908925E0,3.6375532E0,1.0923234E0,1.0837979E0,2.6206539E0,1.2882712E0,1.5128434E0,2.12471E0],"tree_param":{"num_deleted":"0","num_feature":"3","num_nodes":"23","size_leaf_vector":"1"}},{"base_weights":[7.5987363E-3,6.358377E-2,-1.8777007E-2,-6.75623E-2,1.3389206E-1,-2.0266814E-2,-1.00885004E-1,8.96071E-2,-1.5371666E-2,1.851281E-1,-1.04799435E-1,-7.1312584E-2,1.3398679E-1,-3.159463E-1,2.2899607E-2,2.6562565E-3,-1.7081553E-1,8.9755066E-2,-2.794223E-2],"categories":[],"categories_nodes":[],"categories_segments":[],"categories_sizes":[],"default_left":[0,0,0,0,0,0,0,0,0,0,0,0,0,0,0,0,0,0,0],"id":27,"left_children":[1,-1,3,5,7,9,-1,-1,-1,11,13,-1,-1,15,17,-1,-1,-1,-1],"loss_changes":[1.0845713E-1,0E0,1.4375743E-1,1.7583631E-1,1.5916786E-1,2.5005925E-1,0E0,0E0,0E0,5.744101E-1,2.7821416E-1,0E0,0E0,3.2237756E-1,2.5853512E-1,0E0,0E0,0E0,0E0],"parents":[2147483647,0,0,2,2,3,3,4,4,5,5,9,9,10,10,13,13,14,14],"right_children":[2,-1,4,6,8,10,-1,-1,-1,12,14,-1,-1,16,18,-1,-1,-1,-1],"split_conditions":[-8.146545E-1,6.358377E-2,1.3877097E0,1.2702503E0,1.8575474E0,3.295203E-2,-1.00885004E-1,8.96071E-2,-1.5371666E-2,2.4248031E-1,4.1500455E-1,-7.1312584E-2,1.3398679E-1,1.8375058E-1,6.060308E-1,2.6562565E-3,-1.7081553E-1,8.9755066E-2,-2.794223E-2],"split_indices":[2,0,2,2,2,1,0,0,0,2,1,0,0,2,1,0,0,0,0],"split_type":[0,0,0,0,0,0,0,0,0,0,0,0,0,0,0,0,0,0,0],"sum_hessian":[1.8384258E1,1.2973498E0,1.7086908E1,1.33715105E1,3.7153976E0,1.2284781E1,1.0867287E0,1.6411197E0,2.074278E0,3.2348404E0,9.049941E0,1.2708452E0,1.9639953E0,2.8550484E0,6.194893E0,1.6743318E0,1.1807166E0,1.365489E0,4.829404E0],"tree_param":{"num_deleted":"0","num_feature":"3","num_nodes":"19","size_leaf_vector":"1"}},{"base_weights":[4.6775034E-3,-7.087678E-2,3.081796E-2,-1.579853E-2,1.8476428E-1,5.209915E-2,-8.002104E-2,1.2941569E-1,-1.873264E-2,-5.623186E-2,1.6731122E-1,-2.2332183E-1,2.035267E-1,2.655082E-1,-4.8461754E-2,-1.740391E-2,-1.1973021E-1,8.657449E-2,1.0162657E-2,1.1500544E-1,1.4694687E-2],"categories":[],"categories_nodes":[],"categories_segments":[],"categories_sizes":[],"default_left":[0,0,0,0,0,0,0,0,0,0,0,0,0,0,0,0,0,0,0,0,0],"id":28,"left_children":[1,-1,3,5,7,9,-1,-1,-1,11,13,15,17,19,-1,-1,-1,-1,-1,-1,-1],"loss_changes":[1.2859432E-1,0E0,1.3396926E-1,2.6841223E-1,2.9050583E-1,1.6658783E-1,0E0,0E0,0E0,3.5964715E-1,2.4808894E-1,1.1871034E-1,3.866312E-2,1.1573234E-1,0E0,0E0,0E0,0E0,0E0,0E0,0E0],"parents":[2147483647,0,0,2,2,3,3,4,4,5,5,9,9,10,10,11,11,12,12,13,13],"right_children":[2,-1,4,6,8,10,-1,-1,-1,12,14,16,18,20,-1,-1,-1,-1,-1,-1,-1],"split_conditions":[-8.266661E-1,-7.087678E-2,1.3877097E0,7.710477E-1,1.8575474E0,7.015439E-1,-8.002104E-2,1.2941569E-1,-1.873264E-2,2.4248031E-1,2.0387278E0,3.1949142E-1,3.295203E-2,1.0202041E0,-4.8461754E-2,-1.740391E-2,-1.1973021E-1,8.657449E-2,1.0162657E-2,1.1500544E-1,1.4694687E-2],"split_indices":[1,0,2,2,2,1,0,0,0,2,1,1,1,0,0,0,0,0,0,0,0],"split_type":[0,0,0,0,0,0,0,0,0,0,0,0,0,0,0,0,0,0,0,0,0],"sum_hessian":[1.8261877E1,1.0006907E0,1.7261185E1,1.3937997E1,3.3231888E0,1.15934725E1,2.3445241E0,1.2906005E0,2.0325882E0,6.2390127E0,5.35446E0,3.882112E0,2.356901E0,4.2715597E0,1.0829002E0,2.6860695E0,1.1960424E0,1.1029205E0,1.2539804E0,2.267188E0,2.0043714E0],"tree_param":{"num_deleted":"0","num_feature":"3","num_nodes":"21","size_leaf_vector":"1"}},{"base_weights":[3.7179433E-3,-3.330927E-2,1.7780074E-1,-1.4834242E-1,4.571195E-3,9.9627666E-2,-1.6451253E-2,2.74051E-2,-1.0624589E-1,9.570986E-2,-1.9319415E-1,-3.9356393E-3,2.3656236E-1,-1.2493089E-2,-1.0537857E-1,-7.585393E-2,1.0100544E-1,8.904713E-2,3.0596301E-2,-3.406149E-2,2.9665848E-2,-1.1698544E-2,7.88816E-2],"categories":[],"categories_nodes":[],"categories_segments":[],"categories_sizes":[],"default_left":[0,0,0,0,0,0,0,0,0,0,0,0,0,0,0,0,0,0,0,0,0,0,0],"id":29,"left_children":[1,3,5,7,9,-1,-1,-1,-1,11,13,15,17,19,-1,-1,21,-1,-1,-1,-1,-1,-1],"loss_changes":[1.2886834E-1,7.288469E-2,1.4395504E-1,2.3632908E-1,2.6065782E-1,0E0,0E0,0E0,0E0,1.3940328E-1,1.2613833E-1,2.0216493E-1,3.0107945E-3,4.6893638E-2,0E0,0E0,1.3428628E-1,0E0,0E0,0E0,0E0,0E0,0E0],"parents":[2147483647,0,0,1,1,2,2,3,3,4,4,9,9,10,10,11,11,12,12,13,13,16,16],"right_children":[2,4,6,8,10,-1,-1,-1,-1,12,14,16,18,20,-1,-1,22,-1,-1,-1,-1,-1,-1],"split_conditions":[1.3701358E0,7.5614504E-3,2.0387278E0,-6.971951E-1,5.1051766E-1,9.9627666E-2,-1.6451253E-2,2.74051E-2,-1.0624589E-1,1.2846516E-1,1.8575474E0,2.4248031E-1,3.1949142E-1,3.8930458E-1,-1.0537857E-1,-7.585393E-2,-1.5807423E-1,8.904713E-2,3.0596301E-2,-3.406149E-2,2.9665848E-2,-1.1698544E-2,7.88816E-2],"split_indices":[1,2,1,2,1,0,0,0,0,1,2,2,1,2,0,0,1,0,0,0,0,0,0],"split_type":[0,0,0,0,0,0,0,0,0,0,0,0,0,0,0,0,0,0,0,0,0,0,0],"sum_hessian":[1.8073801E1,1.5570609E1,2.5031927E0,3.134842E0,1.2435767E1,1.24799E0,1.2552025E0,1.705136E0,1.4297059E0,8.865988E0,3.56978E0,5.76185E0,3.1041377E0,2.1691132E0,1.4006668E0,1.2907926E0,4.471057E0,1.3113037E0,1.7928339E0,1.1271544E0,1.0419588E0,2.8050873E0,1.6659697E0],"tree_param":{"num_deleted":"0","num_feature":"3","num_nodes":"23","size_leaf_vector":"1"}},{"base_weights":[2.9181007E-3,-2.5720777E-2,6.554033E-2,-1.3683307E-1,1.318887E-1,2.517393E-2,-2.3078167E-1,-2.379435E-2,3.6335078E-1,-8.8849396E-2,1.9858703E-1,-8.2081474E-2,-3.4828687E-1,5.5758893E-2,-1.7770088E-1,3.2983813E-2,1.2862943E-1,-6.964175E-4,1.0105476E-1,-6.3710295E-2,3.6130797E-2,-1.4194208E-1,-3.4385964E-2,-1.280311E-1,4.7612377E-2],"categories":[],"categories_nodes":[],"categories_segments":[],"categories_sizes":[],"default_left":[0,0,0,0,0,0,0,0,0,0,0,0,0,0,0,0,0,0,0,0,0,0,0,0,0],"id":30,"left_children":[1,3,-1,5,7,9,11,13,15,-1,17,19,21,-1,23,-1,-1,-1,-1,-1,-1,-1,-1,-1,-1],"loss_changes":[1.23035334E-1,3.2774413E-1,0E0,1.7114879E-1,2.9049027E-1,3.312468E-1,9.327108E-2,2.1420287E-1,6.0142577E-3,0E0,1.0561478E-1,1.4132254E-1,5.0426275E-2,0E0,3.8186583E-1,0E0,0E0,0E0,0E0,0E0,0E0,0E0,0E0,0E0,0E0],"parents":[2147483647,0,0,1,1,3,3,4,4,5,5,6,6,7,7,8,8,10,10,11,11,12,12,14,14],"right_children":[2,4,-1,6,8,10,12,14,16,-1,18,20,22,-1,24,-1,-1,-1,-1,-1,-1,-1,-1,-1,-1],"split_conditions":[1.9162772E0,1.0202041E0,6.554033E-2,2.7184516E-1,7.970571E-1,-7.2655994E-1,5.1051766E-1,1.2502088E-1,-1.0989798E-1,-8.8849396E-2,5.1051766E-1,3.295203E-2,9.4723684E-1,5.5758893E-2,5.06764E-1,3.2983813E-2,1.2862943E-1,-6.964175E-4,1.0105476E-1,-6.3710295E-2,3.6130797E-2,-1.4194208E-1,-3.4385964E-2,-1.280311E-1,4.7612377E-2],"split_indices":[2,0,0,2,1,2,1,2,2,0,1,1,2,0,2,0,0,0,0,0,0,0,0,0,0],"split_type":[0,0,0,0,0,0,0,0,0,0,0,0,0,0,0,0,0,0,0,0,0,0,0,0,0],"sum_hessian":[1.8020618E1,1.6684515E1,1.3361046E0,9.863042E0,6.8214726E0,3.8889313E0,5.97411E0,4.614755E0,2.2067175E0,1.1149838E0,2.7739475E0,3.3867671E0,2.5873432E0,1.8656545E0,2.7491007E0,1.0027963E0,1.2039212E0,1.5315971E0,1.2423502E0,2.0313158E0,1.3554512E0,1.0183619E0,1.5689814E0,1.4252623E0,1.3238382E0],"tree_param":{"num_deleted":"0","num_feature":"3","num_nodes":"25","size_leaf_vector":"1"}},{"base_weights":[2.8858706E-3,-2.765249E-2,5.6081206E-2,-5.1355876E-2,4.693536E-2,-4.1382737E-4,-9.1500156E-2,-6.858743E-2,9.0816155E-2,-1.6484796E-1,5.9185557E-2,1.34939775E-2,-7.777385E-2,-2.9458446E-2,6.413056E-2],"categories":[],"categories_nodes":[],"categories_segments":[],"categories_sizes":[],"default_left":[0,0,0,0,0,0,0,0,0,0,0,0,0,0,0],"id":31,"left_children":[1,3,-1,5,-1,7,-1,9,-1,11,13,-1,-1,-1,-1],"loss_changes":[1.1106833E-1,8.235587E-2,0E0,2.0456101E-1,0E0,3.140748E-1,0E0,1.6230117E-1,0E0,1.5700139E-1,1.685375E-1,0E0,0E0,0E0,0E0],"parents":[2147483647,0,0,1,1,3,3,5,5,7,7,9,9,10,10],"right_children":[2,4,-1,6,-1,8,-1,10,-1,12,14,-1,-1,-1,-1],"split_conditions":[1.465649E0,1.9162772E0,5.6081206E-2,1.0835965E0,4.693536E-2,8.925702E-1,-9.1500156E-2,1.0202041E0,9.0816155E-2,2.7184516E-1,2.7184516E-1,1.34939775E-2,-7.777385E-2,-2.9458446E-2,6.413056E-2],"split_indices":[1,2,0,1,0,1,0,0,0,2,2,0,0,0,0],"split_type":[0,0,0,0,0,0,0,0,0,0,0,0,0,0,0],"sum_hessian":[1.7841135E1,1.6030983E1,1.810151E0,1.4841222E1,1.1897612E0,1.319314E1,1.6480819E0,1.1402505E1,1.7906349E0,6.3377E0,5.0648055E0,2.1289616E0,4.2087383E0,2.6904469E0,2.3743587E0],"tree_param":{"num_deleted":"0","num_feature":"3","num_nodes":"15","size_leaf_vector":"1"}},{"base_weights":[6.25561E-3,-4.9902704E-2,8.348936E-2,5.4356825E-2,-9.4647385E-2,2.404634E-1,-6.380967E-2,-2.7272588E-2,-7.927052E-2,1.9983863E-2,9.6811354E-2,-8.484068E-2,1.16916254E-1,-6.919033E-2,5.9199765E-2,6.4268254E-2,-5.0722472E-3,-1.0133751E-1,1.8322411E-1,2.2976656E-2,-7.384141E-2,1.2421794E-1,-4.13452E-2],"categories":[],"categories_nodes":[],"categories_segments":[],"categories_sizes":[],"default_left":[0,0,0,0,0,0,0,0,0,0,0,0,0,0,0,0,0,0,0,0,0,0,0],"id":32,"left_children":[1,3,5,-1,7,9,11,13,-1,-1,-1,-1,15,-1,17,-1,-1,19,21,-1,-1,-1,-1],"loss_changes":[8.49504E-2,1.351295E-1,2.0530175E-1,0E0,1.0952045E-1,3.8365215E-2,2.3208463E-1,1.6183281E-1,0E0,0E0,0E0,0E0,4.8712805E-2,0E0,1.5212938E-1,0E0,0E0,1.1076559E-1,3.6391085E-1,0E0,0E0,0E0,0E0],"parents":[2147483647,0,0,1,1,2,2,4,4,5,5,6,6,7,7,12,12,14,14,17,17,18,18],"right_children":[2,4,6,-1,8,10,12,14,-1,-1,-1,-1,16,-1,18,-1,-1,20,22,-1,-1,-1,-1],"split_conditions":[4.7739917E-1,-8.146545E-1,1.2996151E0,5.4356825E-2,1.0835965E0,8.004126E-1,1.4464394E0,7.5614504E-3,-7.927052E-2,1.9983863E-2,9.6811354E-2,-8.484068E-2,9.880833E-1,-6.919033E-2,1.0202041E0,6.4268254E-2,-5.0722472E-3,2.2397828E-1,1.5438573E-1,2.2976656E-2,-7.384141E-2,1.2421794E-1,-4.13452E-2],"split_indices":[2,2,2,0,1,2,2,2,0,0,0,0,1,0,0,0,0,1,2,0,0,0,0],"split_type":[0,0,0,0,0,0,0,0,0,0,0,0,0,0,0,0,0,0,0,0,0,0,0],"sum_hessian":[1.7625353E1,1.0409938E1,7.2154145E0,1.1939838E0,9.215955E0,3.186806E0,4.028609E0,7.4263763E0,1.7895782E0,1.6046615E0,1.5821444E0,1.5660964E0,2.4625123E0,1.7182727E0,5.7081037E0,1.0778933E0,1.384619E0,2.5675657E0,3.1405377E0,1.3633711E0,1.2041945E0,1.6583844E0,1.4821533E0],"tree_param":{"num_deleted":"0","num_feature":"3","num_nodes":"23","size_leaf_vector":"1"}},{"base_weights":[5.881521E-3,-3.0530116E-2,1.779729E-1,-1.10524856E-1,3.3851895E-2,9.5553264E-2,-1.1508282E-2,-1.06793165E-1,2.2416966E-2,1.5274125E-1,-1.7269374E-1,8.515866E-2,-1.01370126E-1,-2.3721341E-2,2.1224663E-1,6.5373234E-3,-9.442764E-2,5.5461455E-2,-8.56597E-2,9.780754E-2,1.104605E-1,7.4836545E-2,-6.2337343E-2],"categories":[],"categories_nodes":[],"categories_segments":[],"categories_sizes":[],"default_left":[0,0,0,0,0,0,0,0,0,0,0,0,0,0,0,0,0,0,0,0,0,0,0],"id":33,"left_children":[1,3,5,7,9,-1,-1,-1,11,13,15,-1,17,-1,19,-1,-1,-1,-1,21,-1,-1,-1],"loss_changes":[1.213967E-1,8.680475E-2,1.1492791E-1,2.5031254E-1,2.6461107E-1,0E0,0E0,0E0,2.1512705E-1,1.0903782E-1,1.1775213E-1,0E0,2.9763108E-1,0E0,6.381345E-2,0E0,0E0,0E0,0E0,2.6444793E-1,0E0,0E0,0E0],"parents":[2147483647,0,0,1,1,2,2,3,3,4,4,8,8,9,9,10,10,12,12,14,14,19,19],"right_children":[2,4,6,8,10,-1,-1,-1,12,14,16,-1,18,-1,20,-1,-1,-1,-1,22,-1,-1,-1],"split_conditions":[1.3701358E0,2.4248031E-1,2.0387278E0,1.2846516E-1,5.1051766E-1,9.5553264E-2,-1.1508282E-2,-1.06793165E-1,3.1949142E-1,-6.3563985E-1,1.8575474E0,8.515866E-2,-6.971951E-1,-2.3721341E-2,1.3583449E0,6.5373234E-3,-9.442764E-2,5.5461455E-2,-8.56597E-2,1.2408854E0,1.104605E-1,7.4836545E-2,-6.2337343E-2],"split_indices":[1,2,1,1,1,0,0,0,1,1,2,0,2,0,2,0,0,0,0,2,0,0,0],"split_type":[0,0,0,0,0,0,0,0,0,0,0,0,0,0,0,0,0,0,0,0,0,0,0],"sum_hessian":[1.750635E1,1.5128094E1,2.3782563E0,6.4264793E0,8.701613E0,1.1553737E0,1.2228826E0,1.6683992E0,4.7580805E0,5.688032E0,3.0135815E0,1.11339E0,3.6446905E0,1.0946902E0,4.5933423E0,1.6294717E0,1.3841097E0,1.4253814E0,2.219309E0,3.5877903E0,1.0055519E0,2.5206711E0,1.0671191E0],"tree_param":{"num_deleted":"0","num_feature":"3","num_nodes":"23","size_leaf_vector":"1"}},{"base_weights":[6.3181063E-3,-2.1487853E-2,5.1879074E-2,-5.5911236E-2,1.2207506E-2,8.7881E-2,-3.8103327E-2,-9.277667E-2,1.890005E-2,1.0824288E-1,-1.2537901E-1,7.960987E-3,1.005074E-1,3.5478923E-2,-7.807434E-2],"categories":[],"categories_nodes":[],"categories_segments":[],"categories_sizes":[],"default_left":[0,0,0,0,0,0,0,0,0,0,0,0,0,0,0],"id":34,"left_children":[1,3,-1,-1,5,-1,7,-1,9,11,13,-1,-1,-1,-1],"loss_changes":[8.891344E-2,9.477536E-2,0E0,0E0,2.1966687E-1,0E0,2.1302572E-1,0E0,1.6848764E-1,1.3858068E-1,1.9702578E-1,0E0,0E0,0E0,0E0],"parents":[2147483647,0,0,1,1,4,4,6,6,8,8,9,9,10,10],"right_children":[2,4,-1,-1,6,-1,8,-1,10,12,14,-1,-1,-1,-1],"split_conditions":[1.465649E0,-6.091005E-1,5.1879074E-2,-5.5911236E-2,3.6926307E-2,8.7881E-2,9.565602E-2,-9.277667E-2,5.1051766E-1,4.1500455E-1,6.242234E-1,7.960987E-3,1.005074E-1,3.5478923E-2,-7.807434E-2],"split_indices":[1,2,0,0,2,0,2,0,1,1,2,0,0,0,0],"split_type":[0,0,0,0,0,0,0,0,0,0,0,0,0,0,0],"sum_hessian":[1.7390036E1,1.5649343E1,1.7406937E0,1.8865849E0,1.3762757E1,1.3587182E0,1.2404039E1,1.3859886E0,1.1018051E1,6.958724E0,4.059327E0,5.936795E0,1.0219288E0,1.4902669E0,2.5690598E0],"tree_param":{"num_deleted":"0","num_feature":"3","num_nodes":"15","size_leaf_vector":"1"}},{"base_weights":[7.4953167E-3,-3.6309533E-2,1.5117341E-1,-7.090477E-2,1.1276118E-2,7.155845E-2,9.253063E-3,6.446881E-2,-7.46648E-2,9.671541E-2,-3.9022326E-2,1.2028485E-2,9.716533E-2,-7.700391E-2,2.624794E-2],"categories":[],"categories_nodes":[],"categories_segments":[],"categories_sizes":[],"default_left":[0,0,0,0,0,0,0,0,0,0,0,0,0,0,0],"id":35,"left_children":[1,3,5,-1,7,-1,-1,9,-1,11,-1,13,-1,-1,-1],"loss_changes":[1.2125516E-1,1.4452118E-1,3.985273E-2,0E0,1.9585058E-1,0E0,0E0,8.5236475E-2,0E0,1.9826913E-1,0E0,1.9874215E-1,0E0,0E0,0E0],"parents":[2147483647,0,0,1,1,2,2,4,4,7,7,9,9,11,11],"right_children":[2,4,6,-1,8,-1,-1,10,-1,12,-1,14,-1,-1,-1],"split_conditions":[1.3877097E0,-6.25611E-2,1.8575474E0,-7.090477E-2,7.710477E-1,7.155845E-2,9.253063E-3,2.0387278E0,-7.46648E-2,9.880833E-1,-3.9022326E-2,-6.091005E-1,9.716533E-2,-7.700391E-2,2.624794E-2],"split_indices":[2,1,2,0,2,0,0,1,0,1,0,2,0,0,0],"split_type":[0,0,0,0,0,0,0,0,0,0,0,0,0,0,0],"sum_hessian":[1.7393684E1,1.3902385E1,3.4912996E0,1.9092975E0,1.1993087E1,1.4536912E0,2.0376084E0,1.05817175E1,1.4113691E0,9.5084915E0,1.073226E0,7.693399E0,1.8150928E0,1.1603607E0,6.5330386E0],"tree_param":{"num_deleted":"0","num_feature":"3","num_nodes":"15","size_leaf_vector":"1"}},{"base_weights":[2.3664017E-3,-6.0103342E-2,9.145417E-2,1.4044377E-1,-1.2947577E-1,2.2897246E-1,-3.761881E-2,7.225348E-3,5.5493336E-2,1.8455125E-2,-1.9322804E-1,1.1355899E-2,9.685357E-2,-8.27275E-2,1.481469E-1,-2.4846472E-1,2.0482294E-2,6.0976487E-2,1.2368961E-2,-3.8162643E-1,1.5094477E-2,-1.7034087E-2,-1.7555736E-1],"categories":[],"categories_nodes":[],"categories_segments":[],"categories_sizes":[],"default_left":[0,0,0,0,0,0,0,0,0,0,0,0,0,0,0,0,0,0,0,0,0,0,0],"id":36,"left_children":[1,3,5,7,9,11,13,-1,-1,-1,15,-1,-1,-1,17,19,-1,-1,-1,21,-1,-1,-1],"loss_changes":[1.0758868E-1,1.7659877E-1,1.4986494E-1,1.3195433E-2,1.2123406E-1,5.9435263E-2,2.604452E-1,0E0,0E0,0E0,1.1770642E-1,0E0,0E0,0E0,1.1882946E-2,2.56872E-1,0E0,0E0,0E0,2.4771988E-1,0E0,0E0,0E0],"parents":[2147483647,0,0,1,1,2,2,3,3,4,4,5,5,6,6,10,10,14,14,15,15,19,19],"right_children":[2,4,6,8,10,12,14,-1,-1,-1,16,-1,-1,-1,18,20,-1,-1,-1,22,-1,-1,-1],"split_conditions":[5.06764E-1,-6.678302E-1,1.2996151E0,9.880833E-1,3.295203E-2,8.004126E-1,1.4464394E0,7.225348E-3,5.5493336E-2,1.8455125E-2,3.0121002E-1,1.1355899E-2,9.685357E-2,-8.27275E-2,9.880833E-1,7.970571E-1,2.0482294E-2,6.0976487E-2,1.2368961E-2,3.1949142E-1,1.5094477E-2,-1.7034087E-2,-1.7555736E-1],"split_indices":[2,2,2,1,1,2,2,0,0,0,2,0,0,0,1,1,0,0,0,1,0,0,0],"split_type":[0,0,0,0,0,0,0,0,0,0,0,0,0,0,0,0,0,0,0,0,0,0,0],"sum_hessian":[1.7344414E1,1.0386549E1,6.9578643E0,2.406157E0,7.980392E0,2.9939945E0,3.9638698E0,1.0924901E0,1.3136669E0,2.005939E0,5.974453E0,1.4483913E0,1.5456032E0,1.5247712E0,2.4390986E0,4.973719E0,1.0007336E0,1.0149246E0,1.4241741E0,3.2485876E0,1.7251316E0,1.7441787E0,1.504409E0],"tree_param":{"num_deleted":"0","num_feature":"3","num_nodes":"23","size_leaf_vector":"1"}},{"base_weights":[2.6804616E-3,-3.504066E-2,1.2764728E-1,-6.28577E-2,6.381548E-3,6.836218E-2,1.3012397E-3,-9.778835E-2,1.4186041E-1,6.0112294E-2,-2.5821093E-1,1.2951826E-2,1.025393E-1,-6.0729165E-2,1.9190113E-1,-1.1513894E-2,-1.303464E-1,2.3319499E-1,-1.1623204E-1,-2.397936E-2,1.11335784E-1,-6.1317245E-3,1.13501765E-1],"categories":[],"categories_nodes":[],"categories_segments":[],"categories_sizes":[],"default_left":[0,0,0,0,0,0,0,0,0,0,0,0,0,0,0,0,0,0,0,0,0,0,0],"id":37,"left_children":[1,3,5,-1,7,-1,-1,9,11,13,15,17,-1,-1,19,-1,-1,21,-1,-1,-1,-1,-1],"loss_changes":[8.974268E-2,1.074341E-1,5.3508908E-2,0E0,1.949915E-1,0E0,0E0,2.1429554E-1,1.4986828E-1,2.037444E-1,1.4148024E-1,5.02977E-1,0E0,0E0,2.0925455E-1,0E0,0E0,1.4184317E-1,0E0,0E0,0E0,0E0,0E0],"parents":[2147483647,0,0,1,1,2,2,4,4,7,7,8,8,9,9,10,10,11,11,14,14,17,17],"right_children":[2,4,6,-1,8,-1,-1,10,12,14,16,18,-1,-1,20,-1,-1,22,-1,-1,-1,-1,-1],"split_conditions":[1.3877097E0,-6.25611E-2,1.8575474E0,-6.28577E-2,1.0202041E0,6.836218E-2,1.3012397E-3,7.970571E-1,2.7184516E-1,1.2502088E-1,3.8930458E-1,1.2502088E-1,1.025393E-1,-6.0729165E-2,1.2846516E-1,-1.1513894E-2,-1.303464E-1,-1.0989798E-1,-1.1623204E-1,-2.397936E-2,1.11335784E-1,-6.1317245E-3,1.13501765E-1],"split_indices":[2,1,2,0,0,0,0,1,2,2,2,2,0,0,1,0,0,2,0,0,0,0,0],"split_type":[0,0,0,0,0,0,0,0,0,0,0,0,0,0,0,0,0,0,0,0,0,0,0],"sum_hessian":[1.7089066E1,1.3679516E1,3.4095497E0,1.8458498E0,1.1833667E1,1.413044E0,1.9965057E0,6.847113E0,4.986553E0,3.765801E0,3.0813124E0,3.6791916E0,1.3073617E0,1.0794183E0,2.6863825E0,1.9131668E0,1.1681455E0,2.642963E0,1.0362287E0,1.2875175E0,1.398865E0,1.2746829E0,1.36828E0],"tree_param":{"num_deleted":"0","num_feature":"3","num_nodes":"23","size_leaf_vector":"1"}},{"base_weights":[8.036296E-4,-5.8798E-2,8.66936E-2,1.3479722E-1,-1.2541595E-1,2.2006471E-1,-3.963105E-2,5.256918E-2,1.2044115E-2,1.6191239E-2,-1.8481652E-1,1.8275375E-2,8.624786E-2,-7.168417E-2,1.19464934E-1,-2.3480298E-1,1.645152E-2,2.4586278E-3,5.2023403E-2,-3.665079E-1,1.6209457E-2,-2.282258E-2,-1.6377863E-1],"categories":[],"categories_nodes":[],"categories_segments":[],"categories_sizes":[],"default_left":[0,0,0,0,0,0,0,0,0,0,0,0,0,0,0,0,0,0,0,0,0,0,0],"id":38,"left_children":[1,3,5,7,9,11,13,-1,-1,-1,15,-1,-1,-1,17,19,-1,-1,-1,21,-1,-1,-1],"loss_changes":[9.761286E-2,1.6218603E-1,1.4026396E-1,5.8463663E-3,1.0479784E-1,2.4878949E-2,1.8256664E-1,0E0,0E0,0E0,9.566884E-2,0E0,0E0,0E0,1.879413E-2,2.4454063E-1,0E0,0E0,0E0,1.7660266E-1,0E0,0E0,0E0],"parents":[2147483647,0,0,1,1,2,2,3,3,4,4,5,5,6,6,10,10,14,14,15,15,19,19],"right_children":[2,4,6,8,10,12,14,-1,-1,-1,16,-1,-1,-1,18,20,-1,-1,-1,22,-1,-1,-1],"split_conditions":[5.06764E-1,-6.678302E-1,1.2996151E0,-8.146545E-1,3.295203E-2,8.004126E-1,1.4464394E0,5.256918E-2,1.2044115E-2,1.6191239E-2,3.0121002E-1,1.8275375E-2,8.624786E-2,-7.168417E-2,1.9162772E0,7.970571E-1,1.645152E-2,2.4586278E-3,5.2023403E-2,3.1949142E-1,1.6209457E-2,-2.282258E-2,-1.6377863E-1],"split_indices":[2,2,2,2,1,2,2,0,0,0,2,0,0,0,2,1,0,0,0,1,0,0,0],"split_type":[0,0,0,0,0,0,0,0,0,0,0,0,0,0,0,0,0,0,0,0,0,0,0],"sum_hessian":[1.7072311E1,1.0264731E1,6.8075795E0,2.3658917E0,7.89884E0,2.9504716E0,3.8571076E0,1.0612068E0,1.3046848E0,1.9876488E0,5.911191E0,1.4445151E0,1.5059566E0,1.4893444E0,2.3677633E0,4.9077864E0,1.003405E0,1.1492486E0,1.2185147E0,3.1860619E0,1.7217244E0,1.7604254E0,1.4256363E0],"tree_param":{"num_deleted":"0","num_feature":"3","num_nodes":"23","size_leaf_vector":"1"}},{"base_weights":[1.1347127E-3,-2.8178059E-2,1.4562872E-1,-4.91481E-2,1.2668397E-3,6.22326E-2,5.9027732E-3,7.26649E-2,-4.380225E-2,-8.313349E-2,7.825991E-3,9.801763E-2,-1.5109007E-1,2.7127448E-3,6.7004636E-2,-8.0425985E-2,1.7239586E-3],"categories":[],"categories_nodes":[],"categories_segments":[],"categories_sizes":[],"default_left":[0,0,0,0,0,0,0,0,0,0,0,0,0,0,0,0,0],"id":39,"left_children":[1,3,5,-1,7,-1,-1,-1,9,-1,11,13,15,-1,-1,-1,-1],"loss_changes":[7.962813E-2,6.276366E-2,2.0593844E-2,0E0,1.6112983E-1,0E0,0E0,0E0,1.5301985E-1,0E0,1.7572446E-1,8.4611565E-2,8.334736E-2,0E0,0E0,0E0,0E0],"parents":[2147483647,0,0,1,1,2,2,4,4,8,8,10,10,11,11,12,12],"right_children":[2,4,6,-1,8,-1,-1,-1,10,-1,12,14,16,-1,-1,-1,-1],"split_conditions":[1.3701358E0,-6.091005E-1,3.8930458E-1,-4.91481E-2,3.6926307E-2,6.22326E-2,5.9027732E-3,7.26649E-2,9.565602E-2,-8.313349E-2,5.1051766E-1,1.2846516E-1,8.925702E-1,2.7127448E-3,6.7004636E-2,-8.0425985E-2,1.7239586E-3],"split_indices":[1,2,2,0,2,0,0,0,2,0,1,1,1,0,0,0,0],"split_type":[0,0,0,0,0,0,0,0,0,0,0,0,0,0,0,0,0],"sum_hessian":[1.6831247E1,1.4661859E1,2.1693895E0,1.8010049E0,1.2860854E1,1.0212255E0,1.148164E0,1.3372549E0,1.1523599E1,1.296634E0,1.0226965E1,6.7686687E0,3.4582965E0,4.5854864E0,2.1831822E0,1.5744532E0,1.8838433E0],"tree_param":{"num_deleted":"0","num_feature":"3","num_nodes":"17","size_leaf_vector":"1"}},{"base_weights":[6.2217563E-4,-5.324952E-2,7.834681E-2,1.23780265E-1,-1.1416258E-1,1.8554433E-1,-2.4722701E-2,5.0862E-2,8.462862E-3,-8.815454E-2,-4.0654305E-2,1.540426E-2,7.2875194E-2,-5.8784876E-2,1.1073053E-1,-2.0385998E-1,1.1129745E-1,5.5466085E-3,4.5313057E-2,2.7973056E-2,-1.1503987E-1,1.0350852E-1,-1.055285E-1,-1.0642991E-1,5.7362016E-2],"categories":[],"categories_nodes":[],"categories_segments":[],"categories_sizes":[],"default_left":[0,0,0,0,0,0,0,0,0,0,0,0,0,0,0,0,0,0,0,0,0,0,0,0,0],"id":40,"left_children":[1,3,5,7,9,11,13,-1,-1,-1,15,-1,-1,-1,17,19,21,-1,-1,-1,-1,-1,23,-1,-1],"loss_changes":[7.879739E-2,1.3406242E-1,8.966993E-2,9.76713E-3,1.0421985E-1,1.7494738E-2,1.3321838E-1,0E0,0E0,0E0,2.062559E-1,0E0,0E0,0E0,9.566154E-3,2.4504139E-1,2.634543E-1,0E0,0E0,0E0,0E0,0E0,2.9635185E-1,0E0,0E0],"parents":[2147483647,0,0,1,1,2,2,3,3,4,4,5,5,6,6,10,10,14,14,15,15,16,16,22,22],"right_children":[2,4,6,8,10,12,14,-1,-1,-1,16,-1,-1,-1,18,20,22,-1,-1,-1,-1,-1,24,-1,-1],"split_conditions":[5.06764E-1,-6.678302E-1,1.2996151E0,-8.146545E-1,7.5614504E-3,8.004126E-1,1.4464394E0,5.0862E-2,8.462862E-3,-8.815454E-2,1.0202041E0,1.540426E-2,7.2875194E-2,-5.8784876E-2,1.9162772E0,2.7184516E-1,1.2502088E-1,5.5466085E-3,4.5313057E-2,2.7973056E-2,-1.1503987E-1,1.0350852E-1,2.7184516E-1,-1.0642991E-1,5.7362016E-2],"split_indices":[2,2,2,2,2,2,2,0,0,0,0,0,0,0,2,2,2,0,0,0,0,0,2,0,0],"split_type":[0,0,0,0,0,0,0,0,0,0,0,0,0,0,0,0,0,0,0,0,0,0,0,0,0],"sum_hessian":[1.6822462E1,1.0121824E1,6.700639E0,2.3269625E0,7.7948613E0,2.8923068E0,3.8083317E0,1.0501645E0,1.2767979E0,1.3927913E0,6.40207E0,1.4337376E0,1.4585692E0,1.4847865E0,2.3235455E0,2.922024E0,3.480046E0,1.1502467E0,1.1732986E0,1.2820725E0,1.6399515E0,1.390195E0,2.0898511E0,1.0295402E0,1.060311E0],"tree_param":{"num_deleted":"0","num_feature":"3","num_nodes":"25","size_leaf_vector":"1"}},{"base_weights":[1.1043617E-3,-3.4066144E-2,1.17972724E-1,-1.2458433E-1,5.6535747E-2,7.4504204E-2,-9.183159E-3,-1.8186755E-1,1.641213E-2,8.284366E-2,-2.5138063E-2,-2.9745828E-2,-1.3529357E-1,1.5267354E-1,-1.986785E-1,-6.912424E-2,6.885909E-2,-1.2400158E-2,9.603488E-2,-1.1424338E-1,1.7214622E-3],"categories":[],"categories_nodes":[],"categories_segments":[],"categories_sizes":[],"default_left":[0,0,0,0,0,0,0,0,0,0,0,0,0,0,0,0,0,0,0,0,0],"id":41,"left_children":[1,3,5,7,9,-1,-1,11,-1,-1,13,15,-1,17,19,-1,-1,-1,-1,-1,-1],"loss_changes":[7.656369E-2,1.24668896E-1,9.103176E-2,8.684141E-2,1.4784707E-1,0E0,0E0,2.2832993E-1,0E0,0E0,2.3531307E-1,3.048736E-1,0E0,1.3818535E-1,1.4352535E-1,0E0,0E0,0E0,0E0,0E0,0E0],"parents":[2147483647,0,0,1,1,2,2,3,3,4,4,7,7,10,10,11,11,13,13,14,14],"right_children":[2,4,6,8,10,-1,-1,12,-1,-1,14,16,-1,18,20,-1,-1,-1,-1,-1,-1],"split_conditions":[1.3877097E0,4.1500455E-1,1.8575474E0,6.242234E-1,6.060308E-1,7.4504204E-2,-9.183159E-3,3.0121002E-1,1.641213E-2,8.284366E-2,-5.21006E-1,1.5438573E-1,-1.3529357E-1,-7.2655994E-1,9.880833E-1,-6.912424E-2,6.885909E-2,-1.2400158E-2,9.603488E-2,-1.1424338E-1,1.7214622E-3],"split_indices":[2,1,2,2,1,0,0,2,0,0,2,2,0,2,1,0,0,0,0,0,0],"split_type":[0,0,0,0,0,0,0,0,0,0,0,0,0,0,0,0,0,0,0,0,0],"sum_hessian":[1.6649437E1,1.3342607E1,3.3068316E0,6.486762E0,6.855844E0,1.403709E0,1.9031225E0,4.9051948E0,1.5815673E0,1.213047E0,5.642797E0,3.8432407E0,1.0619543E0,2.8464906E0,2.7963061E0,2.2292316E0,1.6140093E0,1.6675414E0,1.1789494E0,1.0224233E0,1.773883E0],"tree_param":{"num_deleted":"0","num_feature":"3","num_nodes":"21","size_leaf_vector":"1"}},{"base_weights":[3.5837802E-4,-2.5487468E-2,3.852765E-2,5.647752E-2,-6.623955E-2,-5.093888E-2,1.5142763E-1,5.334671E-2,-1.2114198E-1,9.635336E-2,-2.6750047E-2,-2.3428263E-1,4.0178996E-2,-3.3703098E-1,6.0722386E-3,7.9126626E-2,-5.9066437E-2,-1.924467E-2,-1.5332717E-1],"categories":[],"categories_nodes":[],"categories_segments":[],"categories_sizes":[],"default_left":[0,0,0,0,0,0,0,0,0,0,0,0,0,0,0,0,0,0,0],"id":42,"left_children":[1,3,-1,5,7,-1,9,-1,11,-1,-1,13,15,17,-1,-1,-1,-1,-1],"loss_changes":[6.103957E-2,5.5033214E-2,0E0,1.4686757E-1,1.651406E-1,0E0,2.1245864E-1,0E0,1.7994905E-1,0E0,0E0,1.5427116E-1,3.013195E-1,1.6068912E-1,0E0,0E0,0E0,0E0,0E0],"parents":[2147483647,0,0,1,1,3,3,4,4,6,6,8,8,11,11,12,12,13,13],"right_children":[2,4,-1,6,8,-1,10,-1,12,-1,-1,14,16,18,-1,-1,-1,-1,-1],"split_conditions":[1.3701358E0,3.295203E-2,3.852765E-2,2.4248031E-1,-6.971951E-1,-5.093888E-2,1.2702503E0,5.334671E-2,3.0121002E-1,9.635336E-2,-2.6750047E-2,7.970571E-1,7.970571E-1,3.1949142E-1,6.0722386E-3,7.9126626E-2,-5.9066437E-2,-1.924467E-2,-1.5332717E-1],"split_indices":[1,1,0,2,2,0,2,0,2,0,0,1,1,1,0,0,0,0,0],"split_type":[0,0,0,0,0,0,0,0,0,0,0,0,0,0,0,0,0,0,0],"sum_hessian":[1.645205E1,1.4355816E1,2.0962336E0,4.6391582E0,9.716658E0,1.1382791E0,3.5008793E0,1.3732347E0,8.343423E0,1.8562658E0,1.6446135E0,4.6381984E0,3.7052248E0,3.073354E0,1.5648444E0,1.848932E0,1.8562926E0,1.7298791E0,1.3434747E0],"tree_param":{"num_deleted":"0","num_feature":"3","num_nodes":"19","size_leaf_vector":"1"}},{"base_weights":[-2.0719892E-3,-3.62151E-2,1.0950506E-1,-1.1960162E-1,7.1934156E-2,6.5580696E-2,-4.9744304E-3,-8.45963E-3,-2.3655322E-1,-1.4056787E-1,2.2720876E-1,-1.9441345E-1,5.2916784E-2,-1.0720863E-1,-1.8949972E-2,-8.58338E-2,2.8279673E-2,1.0179559E-1,6.9411327E-3,-7.823929E-2,-8.876247E-3],"categories":[],"categories_nodes":[],"categories_segments":[],"categories_sizes":[],"default_left":[0,0,0,0,0,0,0,0,0,0,0,0,0,0,0,0,0,0,0,0,0],"id":43,"left_children":[1,3,5,7,9,-1,-1,11,13,15,17,19,-1,-1,-1,-1,-1,-1,-1,-1,-1],"loss_changes":[6.980248E-2,1.3471459E-1,6.2743485E-2,1.0551474E-1,2.534254E-1,0E0,0E0,2.1572247E-1,6.1074123E-2,1.449489E-1,8.962761E-2,2.627927E-2,0E0,0E0,0E0,0E0,0E0,0E0,0E0,0E0,0E0],"parents":[2147483647,0,0,1,1,2,2,3,3,4,4,7,7,8,8,9,9,10,10,11,11],"right_children":[2,4,6,8,10,-1,-1,12,14,16,18,20,-1,-1,-1,-1,-1,-1,-1,-1,-1],"split_conditions":[1.3877097E0,1.0202041E0,1.8575474E0,7.970571E-1,2.2397828E-1,6.5580696E-2,-4.9744304E-3,1.2846516E-1,-6.091005E-1,2.4248031E-1,1.2502088E-1,5.948586E-1,5.2916784E-2,-1.0720863E-1,-1.8949972E-2,-8.58338E-2,2.8279673E-2,1.0179559E-1,6.9411327E-3,-7.823929E-2,-8.876247E-3],"split_indices":[2,0,2,1,1,0,0,1,2,2,2,2,0,0,0,0,0,0,0,0,0],"split_type":[0,0,0,0,0,0,0,0,0,0,0,0,0,0,0,0,0,0,0,0,0],"sum_hessian":[1.6281855E1,1.2984087E1,3.2977674E0,7.271576E0,5.712511E0,1.3746192E0,1.9231482E0,4.2782164E0,2.9933598E0,2.4517996E0,3.2607114E0,2.1069398E0,2.1712763E0,1.1388115E0,1.8545483E0,1.3788521E0,1.0729476E0,1.6767955E0,1.583916E0,1.0869191E0,1.0200207E0],"tree_param":{"num_deleted":"0","num_feature":"3","num_nodes":"21","size_leaf_vector":"1"}},{"base_weights":[-4.43355E-3,-2.9024243E-2,4.2346574E-2,-1.1482767E-1,9.5610246E-2,2.2086041E-2,-1.9824104E-1,-8.530259E-2,2.163873E-1,-8.29337E-2,1.8745556E-1,-2.7654856E-1,2.0307627E-2,-7.376736E-2,3.7066497E-2,-1.4693948E-2,3.205349E-1,7.3019625E-3,8.4454596E-2,1.5943531E-2,-1.21390976E-1,1.19644545E-1,3.2834597E-2],"categories":[],"categories_nodes":[],"categories_segments":[],"categories_sizes":[],"default_left":[0,0,0,0,0,0,0,0,0,0,0,0,0,0,0,0,0,0,0,0,0,0,0],"id":44,"left_children":[1,3,-1,5,7,9,11,13,15,-1,17,19,-1,-1,-1,-1,21,-1,-1,-1,-1,-1,-1],"loss_changes":[6.579391E-2,1.7751153E-1,0E0,1.1489755E-1,1.6911787E-1,2.771115E-1,1.4603814E-1,1.4702076E-1,1.3778828E-1,0E0,4.7347695E-2,2.2926274E-1,0E0,0E0,0E0,0E0,1.0961533E-2,0E0,0E0,0E0,0E0,0E0,0E0],"parents":[2147483647,0,0,1,1,3,3,4,4,5,5,6,6,7,7,8,8,10,10,11,11,16,16],"right_children":[2,4,-1,6,8,10,12,14,16,-1,18,20,-1,-1,-1,-1,22,-1,-1,-1,-1,-1,-1],"split_conditions":[1.8869122E0,1.0202041E0,4.2346574E-2,2.7184516E-1,2.2397828E-1,-7.2655994E-1,8.925702E-1,2.4248031E-1,-1.0989798E-1,-8.29337E-2,5.1051766E-1,-4.446136E-1,2.0307627E-2,-7.376736E-2,3.7066497E-2,-1.4693948E-2,1.5438573E-1,7.3019625E-3,8.4454596E-2,1.5943531E-2,-1.21390976E-1,1.19644545E-1,3.2834597E-2],"split_indices":[2,0,0,2,1,2,1,2,2,0,1,1,0,0,0,0,2,0,0,0,0,0,0],"split_type":[0,0,0,0,0,0,0,0,0,0,0,0,0,0,0,0,0,0,0,0,0,0,0],"sum_hessian":[1.6233171E1,1.4572452E1,1.6607194E0,8.677319E0,5.895133E0,3.5634823E0,5.1138363E0,2.4776146E0,3.4175186E0,1.0308559E0,2.5326264E0,3.9197085E0,1.1941278E0,1.3004194E0,1.1771951E0,1.1125245E0,2.304994E0,1.3866712E0,1.1459553E0,1.2604492E0,2.6592593E0,1.0326824E0,1.2723116E0],"tree_param":{"num_deleted":"0","num_feature":"3","num_nodes":"23","size_leaf_vector":"1"}},{"base_weights":[7.306647E-4,5.2234337E-2,-2.0980887E-2,-7.592933E-2,2.0655023E-2,7.740862E-2,-2.1837026E-2,-6.517327E-2,1.5254387E-2,8.33089E-2,-4.172272E-2,1.3239664E-1,-3.301323E-2,-8.482315E-2,3.1408574E-2],"categories":[],"categories_nodes":[],"categories_segments":[],"categories_sizes":[],"default_left":[0,0,0,0,0,0,0,0,0,0,0,0,0,0,0],"id":45,"left_children":[1,-1,3,-1,5,-1,7,-1,9,11,13,-1,-1,-1,-1],"loss_changes":[6.781665E-2,0E0,1.6024758E-1,0E0,1.5214324E-1,0E0,9.9289805E-2,0E0,5.025348E-2,4.5221382E-1,2.8483757E-1,0E0,0E0,0E0,0E0],"parents":[2147483647,0,0,2,2,4,4,6,6,8,8,9,9,10,10],"right_children":[2,-1,4,-1,6,-1,8,-1,10,12,14,-1,-1,-1,-1],"split_conditions":[-8.146545E-1,5.2234337E-2,-6.091005E-1,-7.592933E-2,3.6926307E-2,7.740862E-2,9.565602E-2,-6.517327E-2,2.2397828E-1,3.0121002E-1,3.0121002E-1,1.3239664E-1,-3.301323E-2,-8.482315E-2,3.1408574E-2],"split_indices":[2,0,2,0,2,0,2,0,1,2,2,0,0,0,0],"split_type":[0,0,0,0,0,0,0,0,0,0,0,0,0,0,0],"sum_hessian":[1.6044695E1,1.0043926E0,1.5040301E1,1.5150708E0,1.352523E1,1.2833943E0,1.2241837E1,1.1781328E0,1.1063704E1,4.8311462E0,6.232558E0,1.2444496E0,3.5866966E0,2.003496E0,4.2290616E0],"tree_param":{"num_deleted":"0","num_feature":"3","num_nodes":"15","size_leaf_vector":"1"}},{"base_weights":[2.176107E-3,1.1536752E-1,-2.2612527E-2,1.2343624E-3,4.947168E-2,-9.201875E-2,2.7814522E-2,7.118016E-2,-1.0610644E-2,4.270822E-2,-9.588756E-2,-7.058397E-2,1.1428431E-1,-6.905154E-2,1.9738987E-2,2.6884312E-2,-6.600161E-2,6.8274714E-2,-5.1014934E-2],"categories":[],"categories_nodes":[],"categories_segments":[],"categories_sizes":[],"default_left":[0,0,0,0,0,0,0,0,0,0,0,0,0,0,0,0,0,0,0],"id":46,"left_children":[1,3,5,-1,-1,-1,7,-1,9,11,13,15,-1,-1,17,-1,-1,-1,-1],"loss_changes":[5.0294366E-2,1.7051756E-2,2.20257E-1,0E0,0E0,0E0,1.1090526E-1,0E0,6.0188923E-2,3.442763E-1,8.301911E-2,1.8842652E-1,0E0,0E0,1.8215819E-1,0E0,0E0,0E0,0E0],"parents":[2147483647,0,0,1,1,2,2,6,6,8,8,9,9,10,10,11,11,14,14],"right_children":[2,4,6,-1,-1,-1,8,-1,10,12,14,16,-1,-1,18,-1,-1,-1,-1],"split_conditions":[-6.678302E-1,9.880833E-1,7.5614504E-3,1.2343624E-3,4.947168E-2,-9.201875E-2,6.629116E-2,7.118016E-2,1.0202041E0,1.8869122E0,2.7184516E-1,2.2397828E-1,1.1428431E-1,-6.905154E-2,5.361289E-1,2.6884312E-2,-6.600161E-2,6.8274714E-2,-5.1014934E-2],"split_indices":[2,1,2,0,0,0,2,0,0,2,2,1,0,0,2,0,0,0,0],"split_type":[0,0,0,0,0,0,0,0,0,0,0,0,0,0,0,0,0,0,0],"sum_hessian":[1.5995005E1,2.2170992E0,1.3777905E1,1.0167447E0,1.2003545E0,1.3106719E0,1.2467234E1,1.13045E0,1.1336783E1,7.2825785E0,4.0542054E0,6.0481052E0,1.2344732E0,1.4174199E0,2.6367855E0,3.111957E0,2.9361482E0,1.163484E0,1.4733014E0],"tree_param":{"num_deleted":"0","num_feature":"3","num_nodes":"19","size_leaf_vector":"1"}},{"base_weights":[4.818229E-3,-1.9314984E-2,3.6536854E-2,1.1387652E-2,-5.0558113E-2,-7.6470785E-2,1.2463023E-1,-1.5174101E-1,6.1968263E-2,-3.357275E-2,1.1525232E-1,-1.0758077E-2,-9.550769E-2,6.0742002E-2,-3.1913336E-2,5.0161403E-2,-1.553208E-1,-4.3645993E-2,5.6773756E-2,-8.96412E-2,1.0482776E-2],"categories":[],"categories_nodes":[],"categories_segments":[],"categories_sizes":[],"default_left":[0,0,0,0,0,0,0,0,0,0,0,0,0,0,0,0,0,0,0,0,0],"id":47,"left_children":[1,3,-1,5,-1,7,9,11,13,15,-1,17,-1,-1,-1,-1,19,-1,-1,-1,-1],"loss_changes":[5.0205924E-2,7.025128E-2,0E0,1.4192691E-1,0E0,9.394468E-2,2.672256E-1,1.2684235E-1,1.05923556E-1,1.4251825E-1,0E0,1.3636443E-1,0E0,0E0,0E0,0E0,1.05621636E-1,0E0,0E0,0E0,0E0],"parents":[2147483647,0,0,1,1,3,3,5,5,6,6,7,7,8,8,9,9,11,11,16,16],"right_children":[2,4,-1,6,-1,8,10,12,14,16,-1,18,-1,-1,-1,-1,20,-1,-1,-1,-1],"split_conditions":[1.3701358E0,1.8575474E0,3.6536854E-2,4.1500455E-1,-5.0558113E-2,6.242234E-1,3.0121002E-1,2.7184516E-1,1.2996151E0,-6.971951E-1,1.1525232E-1,1.5438573E-1,-9.550769E-2,6.0742002E-2,-3.1913336E-2,5.0161403E-2,1.0202041E0,-4.3645993E-2,5.6773756E-2,-8.96412E-2,1.0482776E-2],"split_indices":[1,2,0,1,0,2,2,2,2,2,0,2,0,0,0,0,0,0,0,0,0],"split_type":[0,0,0,0,0,0,0,0,0,0,0,0,0,0,0,0,0,0,0,0,0],"sum_hessian":[1.5951958E1,1.3915767E1,2.036191E0,1.230708E1,1.6086866E0,7.113128E0,5.193952E0,4.5455804E0,2.5675476E0,3.7679048E0,1.4260474E0,3.0388446E0,1.5067358E0,1.2890005E0,1.2785472E0,1.2813823E0,2.4865224E0,1.9785893E0,1.0602553E0,1.0923065E0,1.394216E0],"tree_param":{"num_deleted":"0","num_feature":"3","num_nodes":"21","size_leaf_vector":"1"}},{"base_weights":[4.6129655E-3,-3.9006192E-2,2.8958963E-2,7.767357E-2,-9.905037E-3,1.039454E-1,-7.1282454E-2,9.543651E-2,-5.2099463E-2,-7.6691665E-2,-8.3995415E-3,-5.848833E-2,4.2608045E-2,1.1624419E-1,-1.4907221E-1,-2.1141648E-2,9.8793544E-2,-7.887974E-2,-2.7318848E-3],"categories":[],"categories_nodes":[],"categories_segments":[],"categories_sizes":[],"default_left":[0,0,0,0,0,0,0,0,0,0,0,0,0,0,0,0,0,0,0],"id":48,"left_children":[1,-1,3,-1,5,7,9,-1,11,-1,13,-1,-1,15,17,-1,-1,-1,-1],"loss_changes":[5.8693357E-2,0E0,1.3670059E-1,0E0,1.03858925E-1,1.9174781E-1,1.08692646E-1,0E0,1.3561289E-1,0E0,1.6046306E-1,0E0,0E0,2.1775052E-1,6.5705344E-2,0E0,0E0,0E0,0E0],"parents":[2147483647,0,0,2,2,4,4,5,5,6,6,8,8,10,10,13,13,14,14],"right_children":[2,-1,4,-1,6,8,10,-1,12,-1,14,-1,-1,16,18,-1,-1,-1,-1],"split_conditions":[-7.2655994E-1,-3.9006192E-2,-5.21006E-1,7.767357E-2,3.295203E-2,3.0121002E-1,9.565602E-2,9.543651E-2,1.3877097E0,-7.6691665E-2,7.710477E-1,-5.848833E-2,4.2608045E-2,3.0121002E-1,1.32898E0,-2.1141648E-2,9.8793544E-2,-7.887974E-2,-2.7318848E-3],"split_indices":[2,0,2,0,1,2,2,0,2,0,2,0,0,2,2,0,0,0,0],"split_type":[0,0,0,0,0,0,0,0,0,0,0,0,0,0,0,0,0,0,0],"sum_hessian":[1.5757664E1,1.7484094E0,1.4009254E1,1.2067983E0,1.2802457E1,4.241413E0,8.561043E0,1.3499334E0,2.8914797E0,1.397785E0,7.163258E0,1.6631973E0,1.2282826E0,3.8900843E0,3.273174E0,2.4299283E0,1.4601558E0,1.3204563E0,1.9527179E0],"tree_param":{"num_deleted":"0","num_feature":"3","num_nodes":"19","size_leaf_vector":"1"}},{"base_weights":[5.4251333E-3,-3.1409115E-2,2.5443796E-2,5.844317E-2,-1.5370122E-2,-9.369077E-2,4.0998377E-2,-9.501169E-2,1.11053795E-1,2.0331562E-1,-7.590903E-2,6.0357798E-2,-1.0659767E-2,7.566397E-2,1.7288843E-2,-5.686455E-2,1.4031932E-2,4.3302942E-2,-3.53088E-2],"categories":[],"categories_nodes":[],"categories_segments":[],"categories_sizes":[],"default_left":[0,0,0,0,0,0,0,0,0,0,0,0,0,0,0,0,0,0,0],"id":49,"left_children":[1,-1,3,-1,5,7,9,-1,11,13,15,-1,-1,-1,-1,-1,17,-1,-1],"loss_changes":[3.9412595E-2,0E0,1.0606098E-1,0E0,6.0976386E-2,2.9637998E-1,1.7143776E-1,0E0,5.6339364E-2,1.1921912E-2,5.894779E-2,0E0,0E0,0E0,0E0,0E0,8.57405E-2,0E0,0E0],"parents":[2147483647,0,0,2,2,4,4,5,5,6,6,8,8,9,9,10,10,16,16],"right_children":[2,-1,4,-1,6,8,10,-1,12,14,16,-1,-1,-1,-1,-1,18,-1,-1],"split_conditions":[-7.2655994E-1,-3.1409115E-2,3.6926307E-2,5.844317E-2,1.2846516E-1,6.242234E-1,5.1051766E-1,-9.501169E-2,-4.446136E-1,1.8375058E-1,8.925702E-1,6.0357798E-2,-1.0659767E-2,7.566397E-2,1.7288843E-2,-5.686455E-2,1.2996151E0,4.3302942E-2,-3.53088E-2],"split_indices":[2,0,2,0,1,2,1,0,1,2,1,0,0,0,0,0,2,0,0],"split_type":[0,0,0,0,0,0,0,0,0,0,0,0,0,0,0,0,0,0,0],"sum_hessian":[1.56698675E1,1.7597197E0,1.3910148E1,1.968454E0,1.1941694E1,4.7205963E0,7.2210975E0,1.9977477E0,2.7228487E0,2.7139137E0,4.5071836E0,1.4553844E0,1.2674644E0,1.484464E0,1.2294497E0,1.501976E0,3.0052078E0,1.4625853E0,1.5426224E0],"tree_param":{"num_deleted":"0","num_feature":"3","num_nodes":"19","size_leaf_vector":"1"}},{"base_weights":[5.078732E-3,-7.481768E-2,3.160186E-2,2.8280148E-2,-8.29629E-2,6.7521565E-2,-5.1156376E-3,-7.380065E-2,4.9832214E-2,-1.722006E-1,5.4506484E-2,1.8151134E-1,-6.5444924E-2,4.427306E-3,-8.884016E-2,-4.6457186E-2,6.625138E-2,1.910162E-2,6.551112E-2,-6.73717E-2,7.7531934E-2,1.5541761E-3,3.3759445E-2],"categories":[],"categories_nodes":[],"categories_segments":[],"categories_sizes":[],"default_left":[0,0,0,0,0,0,0,0,0,0,0,0,0,0,0,0,0,0,0,0,0,0,0],"id":50,"left_children":[1,3,5,-1,-1,-1,7,9,11,13,15,17,19,-1,-1,-1,-1,-1,-1,-1,21,-1,-1],"loss_changes":[3.7584484E-2,1.7748626E-1,9.4785936E-2,0E0,0E0,0E0,4.9179208E-2,8.2126215E-2,1.22612305E-1,8.549316E-2,1.4773273E-1,2.0371825E-3,1.22630194E-1,0E0,0E0,0E0,0E0,0E0,0E0,0E0,7.4679013E-3,0E0,0E0],"parents":[2147483647,0,0,1,1,2,2,6,6,7,7,8,8,9,9,10,10,11,11,12,12,20,20],"right_children":[2,4,6,-1,-1,-1,8,10,12,14,16,18,20,-1,-1,-1,-1,-1,-1,-1,22,-1,-1],"split_conditions":[7.5614504E-3,-6.678302E-1,6.629116E-2,2.8280148E-2,-8.29629E-2,6.7521565E-2,5.06764E-1,4.1500455E-1,1.2996151E0,1.0202041E0,1.0202041E0,8.004126E-1,1.4464394E0,4.427306E-3,-8.884016E-2,-4.6457186E-2,6.625138E-2,1.910162E-2,6.551112E-2,-6.73717E-2,1.9162772E0,1.5541761E-3,3.3759445E-2],"split_indices":[2,2,2,0,0,0,2,1,2,0,0,2,2,0,0,0,0,0,0,0,2,0,0],"split_type":[0,0,0,0,0,0,0,0,0,0,0,0,0,0,0,0,0,0,0,0,0,0,0],"sum_hessian":[1.5620292E1,3.4392598E0,1.2181032E1,2.1607926E0,1.278467E0,1.1247468E0,1.1056286E1,4.7614064E0,6.294879E0,2.5011523E0,2.2602541E0,2.670195E0,3.624684E0,1.3482242E0,1.1529281E0,1.0312228E0,1.2290312E0,1.286064E0,1.3841311E0,1.4453634E0,2.1793206E0,1.0848103E0,1.0945103E0],"tree_param":{"num_deleted":"0","num_feature":"3","num_nodes":"23","size_leaf_vector":"1"}},{"base_weights":[3.4841537E-3,8.478844E-2,-3.1836588E-2,-6.809206E-2,7.7456385E-2,-1.6513261E-1,2.5642516E-2,-4.871186E-2,2.2583209E-2,-4.3067706E-4,-8.285573E-2,9.978075E-2,-1.1424783E-1,3.5756992E-4,9.2923366E-2,-5.108429E-2,-2.471956E-3,4.111195E-2,-1.1420003E-1,-7.098645E-2,1.2167751E-2],"categories":[],"categories_nodes":[],"categories_segments":[],"categories_sizes":[],"default_left":[0,0,0,0,0,0,0,0,0,0,0,0,0,0,0,0,0,0,0,0,0],"id":51,"left_children":[1,3,5,7,-1,9,11,-1,-1,-1,-1,13,15,17,-1,-1,-1,-1,19,-1,-1],"loss_changes":[5.003747E-2,1.5716152E-1,9.7852E-2,6.0742736E-2,0E0,6.897226E-2,1.0892024E-1,0E0,0E0,0E0,0E0,1.3932866E-1,2.0713415E-2,1.0230536E-1,0E0,0E0,0E0,0E0,7.69736E-2,0E0,0E0],"parents":[2147483647,0,0,1,1,2,2,3,3,5,5,6,6,11,11,12,12,13,13,18,18],"right_children":[2,4,6,8,-1,10,12,-1,-1,-1,-1,14,16,18,-1,-1,-1,-1,20,-1,-1],"split_conditions":[3.295203E-2,-1.5807423E-1,4.1500455E-1,1.3877097E0,7.7456385E-2,1.8375058E-1,7.710477E-1,-4.871186E-2,2.2583209E-2,-4.3067706E-4,-8.285573E-2,3.0121002E-1,1.8869122E0,-6.678302E-1,9.2923366E-2,-5.108429E-2,-2.471956E-3,4.111195E-2,1.0202041E0,-7.098645E-2,1.2167751E-2],"split_indices":[1,1,1,2,0,2,2,0,0,0,0,2,2,2,0,0,0,0,0,0,0],"split_type":[0,0,0,0,0,0,0,0,0,0,0,0,0,0,0,0,0,0,0,0,0],"sum_hessian":[1.5484185E1,4.265338E0,1.1218847E1,2.5895395E0,1.6757985E0,2.8158584E0,8.402988E0,1.4822513E0,1.1072882E0,1.5475829E0,1.2682756E0,5.679646E0,2.7233427E0,4.534261E0,1.1453848E0,1.3849761E0,1.3383666E0,1.9779978E0,2.5562634E0,1.131908E0,1.4243555E0],"tree_param":{"num_deleted":"0","num_feature":"3","num_nodes":"21","size_leaf_vector":"1"}},{"base_weights":[1.8363469E-3,-1.117348E-1,2.944629E-2,-8.960381E-2,3.9137352E-2,7.763366E-2,-1.4288062E-2,-5.8015715E-2,1.9686138E-2,9.623691E-2,-8.4511995E-2,1.5667218E-1,-2.1582415E-2,-6.0962357E-2,4.343521E-2,6.722219E-2,3.2065061E-3,-5.5476792E-2,4.0316E-2,2.6347818E-2,-4.801587E-3],"categories":[],"categories_nodes":[],"categories_segments":[],"categories_sizes":[],"default_left":[0,0,0,0,0,0,0,0,0,0,0,0,0,0,0,0,0,0,0,0,0],"id":52,"left_children":[1,3,5,-1,-1,-1,7,-1,9,11,13,15,17,-1,19,-1,-1,-1,-1,-1,-1],"loss_changes":[5.4903626E-2,1.9415289E-1,1.4443865E-1,0E0,0E0,0E0,8.1281506E-2,0E0,1.0074022E-1,5.4367565E-2,9.1587275E-2,4.5365408E-2,1.0909079E-1,0E0,1.0499544E-2,0E0,0E0,0E0,0E0,0E0,0E0],"parents":[2147483647,0,0,1,1,2,2,6,6,8,8,9,9,10,10,11,11,12,12,14,14],"right_children":[2,4,6,-1,-1,-1,8,-1,10,12,14,16,18,-1,20,-1,-1,-1,-1,-1,-1],"split_conditions":[-6.091005E-1,9.880833E-1,3.6926307E-2,-8.960381E-2,3.9137352E-2,7.763366E-2,9.565602E-2,-5.8015715E-2,5.1051766E-1,1.2408854E0,8.004126E-1,1.0202041E0,1.3877097E0,-6.0962357E-2,1.8869122E0,6.722219E-2,3.2065061E-3,-5.5476792E-2,4.0316E-2,2.6347818E-2,-4.801587E-3],"split_indices":[2,1,2,0,0,0,2,0,1,2,2,0,2,0,2,0,0,0,0,0,0],"split_type":[0,0,0,0,0,0,0,0,0,0,0,0,0,0,0,0,0,0,0,0,0],"sum_hessian":[1.5459981E1,2.4275513E0,1.303243E1,1.2384114E0,1.18914E0,1.2997563E0,1.1732674E1,1.1226104E0,1.0610063E1,6.1605353E0,4.4495277E0,3.8539102E0,2.3066251E0,2.0030727E0,2.446455E0,2.2706237E0,1.5832865E0,1.0360131E0,1.270612E0,1.1271447E0,1.3193103E0],"tree_param":{"num_deleted":"0","num_feature":"3","num_nodes":"21","size_leaf_vector":"1"}},{"base_weights":[2.514104E-4,2.1045024E-2,-4.69251E-2,-3.264077E-2,4.5836527E-2,-1.2914043E-2,1.841834E-1,-1.2868728E-1,1.3625821E-1,1.20240286E-1,-3.587178E-2,7.411176E-3,-8.7068684E-2,-5.7547046E-3,7.374027E-2,3.4747142E-2,-3.1015372E-2],"categories":[],"categories_nodes":[],"categories_segments":[],"categories_sizes":[],"default_left":[0,0,0,0,0,0,0,0,0,0,0,0,0,0,0,0,0],"id":53,"left_children":[1,3,-1,-1,5,7,9,11,13,-1,-1,15,-1,-1,-1,-1,-1],"loss_changes":[5.6874614E-2,5.45686E-2,0E0,0E0,1.1321569E-1,1.9897924E-1,3.1969276E-1,1.4350982E-1,9.115669E-2,0E0,0E0,6.5603115E-2,0E0,0E0,0E0,0E0,0E0],"parents":[2147483647,0,0,1,1,4,4,5,5,6,6,7,7,8,8,11,11],"right_children":[2,4,-1,-1,6,8,10,12,14,-1,-1,16,-1,-1,-1,-1,-1],"split_conditions":[2.0387278E0,-6.091005E-1,-4.69251E-2,-3.264077E-2,8.925702E-1,1.0202041E0,1.2996151E0,2.2397828E-1,2.7184516E-1,1.20240286E-1,-3.587178E-2,8.591423E-1,-8.7068684E-2,-5.7547046E-3,7.374027E-2,3.4747142E-2,-3.1015372E-2],"split_indices":[1,2,0,0,1,0,2,1,2,0,0,2,0,0,0,0,0],"split_type":[0,0,0,0,0,0,0,0,0,0,0,0,0,0,0,0,0],"sum_hessian":[1.5448039E1,1.4402197E1,1.0458417E0,1.7656664E0,1.2636531E1,9.506249E0,3.130282E0,5.429621E0,4.0766277E0,1.6407385E0,1.4895433E0,3.4647229E0,1.9648982E0,2.0262604E0,2.0503674E0,1.7282574E0,1.7364655E0],"tree_param":{"num_deleted":"0","num_feature":"3","num_nodes":"17","size_leaf_vector":"1"}},{"base_weights":[-1.4840791E-4,-4.4838786E-2,6.3592E-2,1.438658E-2,-5.9237923E-2,1.767717E-1,-3.8855974E-2,-1.2608062E-1,1.7290273E-1,1.2400241E-2,6.9224015E-2,-5.8340468E-2,9.190476E-2,-2.6567431E-2,-7.758417E-2,-3.633912E-2,3.2093284E-1,9.163333E-3,3.275736E-2,-3.9950386E-2,4.074482E-2,4.354853E-3,1.4358342E-1],"categories":[],"categories_nodes":[],"categories_segments":[],"categories_sizes":[],"default_left":[0,0,0,0,0,0,0,0,0,0,0,0,0,0,0,0,0,0,0,0,0,0,0],"id":54,"left_children":[1,3,5,7,-1,9,11,13,15,-1,-1,-1,17,19,-1,-1,21,-1,-1,-1,-1,-1,-1],"loss_changes":[4.951624E-2,9.518721E-2,8.995132E-2,2.0643917E-1,0E0,1.666639E-2,1.11082435E-1,5.87404E-2,2.2679998E-1,0E0,0E0,0E0,2.5365502E-5,8.6562276E-2,0E0,0E0,1.4504218E-1,0E0,0E0,0E0,0E0,0E0,0E0],"parents":[2147483647,0,0,1,1,2,2,3,3,5,5,6,6,7,7,8,8,12,12,13,13,16,16],"right_children":[2,4,6,8,-1,10,12,14,16,-1,-1,-1,18,20,-1,-1,22,-1,-1,-1,-1,-1,-1],"split_conditions":[5.06764E-1,1.0835965E0,1.2996151E0,4.1500455E-1,-5.9237923E-2,8.004126E-1,1.4464394E0,2.7184516E-1,-6.091005E-1,1.2400241E-2,6.9224015E-2,-5.8340468E-2,1.9162772E0,1.5438573E-1,-7.758417E-2,-3.633912E-2,7.970571E-1,9.163333E-3,3.275736E-2,-3.9950386E-2,4.074482E-2,4.354853E-3,1.4358342E-1],"split_indices":[2,1,2,1,0,2,2,2,2,0,0,0,2,2,0,0,1,0,0,0,0,0,0],"split_type":[0,0,0,0,0,0,0,0,0,0,0,0,0,0,0,0,0,0,0,0,0,0,0],"sum_hessian":[1.5381778E1,9.216409E0,6.1653695E0,7.2923217E0,1.924087E0,2.584575E0,3.5807946E0,3.9747572E0,3.3175642E0,1.2396832E0,1.3448918E0,1.4125628E0,2.1682317E0,2.9558227E0,1.0189344E0,1.1717762E0,2.1457882E0,1.0847478E0,1.0834839E0,1.8930209E0,1.062802E0,1.1000746E0,1.0457135E0],"tree_param":{"num_deleted":"0","num_feature":"3","num_nodes":"23","size_leaf_vector":"1"}},{"base_weights":[2.5397118E-3,3.667448E-2,-2.4292298E-2,-8.353871E-2,2.2159448E-2,8.2326435E-2,-9.3339875E-2,-8.063922E-4,1.7940384E-1,-1.9208837E-1,2.2280648E-2,-4.767068E-2,6.638457E-2,1.1488792E-1,-1.0746895E-2,-9.838974E-2,1.5284811E-2,6.6454835E-2,-2.3115836E-2],"categories":[],"categories_nodes":[],"categories_segments":[],"categories_sizes":[],"default_left":[0,0,0,0,0,0,0,0,0,0,0,0,0,0,0,0,0,0,0],"id":55,"left_children":[1,-1,3,-1,5,7,9,11,13,15,-1,-1,17,-1,-1,-1,-1,-1,-1],"loss_changes":[5.512635E-2,0E0,1.7263202E-1,0E0,9.695921E-2,7.2599664E-2,9.48492E-2,7.249825E-2,1.9536215E-1,1.2709175E-1,0E0,0E0,1.2382883E-1,0E0,0E0,0E0,0E0,0E0,0E0],"parents":[2147483647,0,0,2,2,4,4,5,5,6,6,7,7,8,8,9,9,12,12],"right_children":[2,-1,4,-1,6,8,10,12,14,16,-1,-1,18,-1,-1,-1,-1,-1,-1],"split_conditions":[-6.678302E-1,3.667448E-2,7.5614504E-3,-8.353871E-2,7.015439E-1,1.0202041E0,1.32898E0,2.4248031E-1,1.2502088E-1,1.0202041E0,2.2280648E-2,-4.767068E-2,1.2408854E0,1.1488792E-1,-1.0746895E-2,-9.838974E-2,1.5284811E-2,6.6454835E-2,-2.3115836E-2],"split_indices":[2,0,2,0,1,0,2,2,2,0,0,0,2,0,0,0,0,0,0],"split_type":[0,0,0,0,0,0,0,0,0,0,0,0,0,0,0,0,0,0,0],"sum_hessian":[1.5237956E1,2.1389894E0,1.3098967E1,1.2522687E0,1.1846698E1,7.977958E0,3.8687396E0,4.831859E0,3.1460989E0,2.342549E0,1.5261905E0,1.0339973E0,3.797862E0,1.2163633E0,1.9297354E0,1.278386E0,1.0641631E0,1.5630447E0,2.2348173E0],"tree_param":{"num_deleted":"0","num_feature":"3","num_nodes":"19","size_leaf_vector":"1"}},{"base_weights":[1.1335912E-3,-4.4384595E-2,6.6203184E-2,2.9371176E-2,-9.414305E-2,1.2449742E-1,-2.7865343E-2,1.4066625E-2,-1.4042999E-1,-5.4092985E-2,1.03526615E-1,-5.964858E-2,-6.5336905E-2,-6.5291606E-2,2.3598325E-2,1.7175864E-2,-4.644061E-2],"categories":[],"categories_nodes":[],"categories_segments":[],"categories_sizes":[],"default_left":[0,0,0,0,0,0,0,0,0,0,0,0,0,0,0,0,0],"id":56,"left_children":[1,3,5,-1,7,9,-1,-1,11,13,-1,-1,15,-1,-1,-1,-1],"loss_changes":[5.1047016E-2,8.112096E-2,7.728711E-2,0E0,5.9031993E-2,2.3982266E-1,0E0,0E0,1.4633782E-2,1.0324188E-1,0E0,0E0,5.542226E-2,0E0,0E0,0E0,0E0],"parents":[2147483647,0,0,1,1,2,2,4,4,5,5,8,8,9,9,12,12],"right_children":[2,4,6,-1,8,10,-1,-1,12,14,-1,-1,16,-1,-1,-1,-1],"split_conditions":[5.06764E-1,-6.678302E-1,1.0202041E0,2.9371176E-2,3.295203E-2,8.925702E-1,-2.7865343E-2,1.4066625E-2,4.1500455E-1,1.2702503E0,1.03526615E-1,-5.964858E-2,8.925702E-1,-6.5291606E-2,2.3598325E-2,1.7175864E-2,-4.644061E-2],"split_indices":[2,2,0,0,1,1,0,0,1,2,0,0,1,0,0,0,0],"split_type":[0,0,0,0,0,0,0,0,0,0,0,0,0,0,0,0,0],"sum_hessian":[1.5242759E1,9.155849E0,6.086909E0,2.121541E0,7.034309E0,4.6137347E0,1.4731745E0,1.734983E0,5.299326E0,2.966689E0,1.6470455E0,2.0541146E0,3.2452114E0,1.0427125E0,1.9239767E0,1.521047E0,1.7241645E0],"tree_param":{"num_deleted":"0","num_feature":"3",